Language model created by QuickLM on Mon Apr 22 21:01:08 EDT 2013
Copyright (c) 1996-2000
Carnegie Mellon University and Alexander I. Rudnicky

This model based on a corpus of 668 sentences and 664 words
The (fixed) discount mass is 0.5

\data\
ngram 1=664
ngram 2=1321
ngram 3=674

\1-grams:
-0.7820 </s> -0.3010
-0.7820 <s> -0.2220
-3.3058 A -0.3008
-3.6068 ALL -0.2226
-3.6068 ALMOST -0.3007
-3.6068 AT -0.3009
-3.6068 ATTACK -0.2226
-3.3058 BAAB -0.2226
-3.6068 BAACK -0.2226
-3.6068 BAADE -0.2226
-3.3058 BAAR -0.2226
-3.6068 BAB -0.2226
-3.6068 BABB -0.2226
-3.6068 BACH -0.2226
-3.6068 BACK -0.2226
-3.6068 BACKE -0.2226
-3.3058 BAD -0.2226
-3.6068 BAG -0.2226
-3.6068 BAGG -0.2226
-3.6068 BAGGE -0.2226
-3.6068 BAHL -0.2226
-3.6068 BAHR -0.2226
-3.6068 BAHRE -0.2226
-3.6068 BAHT -0.2226
-3.6068 BAK -0.2226
-3.6068 BAKKE -0.2226
-3.6068 BAL -0.2226
-3.6068 BAR -0.2226
-3.6068 BARR -0.2226
-3.3058 BAT -0.2226
-3.6068 BATT -0.2226
-3.6068 BATTE -0.2226
-3.6068 BHATT -0.2226
-3.6068 BOB -0.2226
-3.6068 BOBB -0.2226
-3.6068 BOCH -0.2226
-3.6068 BOCK -0.2226
-3.6068 BOG -0.2226
-3.6068 BOHLKE -0.2226
-3.6068 BOK -0.2226
-3.6068 BOL -0.2226
-3.6068 BOLLE -0.2226
-3.6068 BOP -0.2226
-3.6068 BOPP -0.2226
-3.6068 BOTT -0.2226
-3.6068 BOUGHT -0.2226
-3.6068 BRAT -0.2226
-3.6068 BRATT -0.2226
-3.6068 CAAN -0.2226
-3.6068 CAB -0.2226
-3.3058 CAC -0.2226
-3.6068 CAC'S -0.2226
-3.6068 CACHE -0.2226
-3.6068 CAD -0.2226
-3.6068 CAEN -0.2226
-3.6068 CAHN -0.2226
-3.6068 CAIRE -0.2226
-3.6068 CAKE -0.2226
-3.6068 CAL -0.2226
-3.6068 CALF -0.2226
-3.6068 CALFED -0.2226
-3.6068 CALK -0.2226
-3.6068 CALM -0.2226
-3.6068 CAM -0.2226
-3.6068 CAMM -0.2226
-3.6068 CAN -0.2226
-3.6068 CAN'T -0.2226
-3.6068 CANN -0.2226
-3.6068 CANT -0.2226
-3.6068 CAP -0.2226
-3.6068 CAPP -0.2226
-3.6068 CAPPED -0.2226
-3.6068 CAQ -0.2226
-3.6068 CAQ'S -0.2226
-3.3058 CAR -0.2226
-3.6068 CAR'S -0.2226
-3.6068 CARD -0.2226
-3.6068 CARE -0.2226
-3.6068 CARL -0.2226
-3.6068 CARLL -0.2226
-3.6068 CARN -0.2226
-3.6068 CARNE -0.2226
-3.6068 CARO -0.2226
-3.6068 CARP -0.2226
-3.6068 CARR -0.2226
-3.6068 CARR'S -0.2226
-3.6068 CARRA -0.2226
-3.6068 CARRE -0.2226
-3.6068 CARRO -0.2226
-3.6068 CARS -0.2226
-3.6068 CARS' -0.2226
-3.6068 CARSE -0.2226
-3.6068 CART -0.2226
-3.6068 CARTE -0.2226
-3.6068 CARVE -0.2226
-3.6068 CAS -0.2226
-3.6068 CASH -0.2226
-3.6068 CASHED -0.2226
-3.6068 CASK -0.2226
-3.6068 CASS -0.2226
-3.6068 CAST -0.2226
-3.6068 CASTE -0.2226
-3.3058 CAT -0.2226
-3.6068 CAT'S -0.2226
-3.6068 CATCH -0.2226
-3.6068 CATE -0.2226
-3.6068 CATOE -0.2226
-3.6068 CATS -0.2226
-3.6068 CATT -0.2226
-3.6068 CATTO -0.2226
-3.6068 CATTY -0.2226
-3.6068 CAUGHT -0.2226
-3.6068 CAUL -0.2226
-3.6068 CAULK -0.2226
-3.6068 CAUSE -0.2226
-3.6068 CHAR -0.2226
-3.6068 CHAT -0.2226
-3.6068 CLAAR -0.2226
-3.6068 CLACK -0.2226
-3.6068 CLAR -0.2226
-3.6068 COAR -0.2226
-3.6068 COAT -0.2226
-3.6068 COB -0.2226
-3.6068 COBB -0.2226
-3.6068 COCK -0.2226
-3.6068 COCKE -0.2226
-3.6068 COD -0.2226
-3.6068 CODD -0.2226
-3.6068 COEUR -0.2226
-3.6068 COHR -0.2226
-3.6068 COIT -0.2226
-3.6068 COKE -0.2226
-3.6068 COLL -0.2226
-3.6068 COM -0.2226
-3.6068 CON -0.2226
-3.6068 CONN -0.2226
-3.6068 CONN. -0.2226
-3.6068 COOK -0.2226
-3.6068 COOKE -0.2226
-3.6068 COOT -0.2226
-3.6068 COOTE -0.2226
-3.6068 COP -0.2226
-3.6068 COPP -0.2226
-3.6068 COR -0.2226
-3.6068 CORE -0.2226
-3.6068 CORPS -0.2226
-3.6068 CORR -0.2226
-3.6068 COT -0.2226
-3.6068 COTE -0.2226
-3.6068 COTT -0.2226
-3.6068 COUGH -0.2226
-3.6068 COZ -0.2226
-3.6068 CRACK -0.2226
-3.6068 CSAR -0.2226
-3.6068 CURT -0.2226
-3.6068 CUT -0.2226
-3.6068 CZAR -0.2226
-3.6068 DAB -0.2226
-3.6068 DAC -0.2226
-3.6068 DACK -0.2226
-3.6068 DAD -0.2226
-3.6068 DAG -0.2226
-3.6068 DAGG -0.2226
-3.6068 DAGUE -0.2226
-3.6068 DAHL -0.2226
-3.6068 DAK -0.2226
-3.6068 DAL -0.2226
-3.6068 DAPP -0.2226
-3.6068 DAR -0.2226
-3.6068 DARR -0.2226
-3.6068 DAT -0.2226
-3.6068 DOB -0.2226
-3.6068 DOBB -0.2226
-3.6068 DOC -0.2226
-3.6068 DOCK -0.2226
-3.6068 DODD -0.2226
-3.6068 DOL -0.2226
-3.6068 DOLL -0.2226
-3.6068 DOLLE -0.2226
-3.6068 DOPP -0.2226
-3.6068 DOT -0.2226
-3.6068 DOTT -0.2226
-3.6068 FAC -0.2226
-3.6068 FAHR -0.2226
-3.6068 FAR -0.2226
-3.6068 FARR -0.2226
-3.6068 FAT -0.2226
-3.6068 FLUTE -0.2226
-3.6068 GAAL -0.2226
-3.6068 GAAR -0.2226
-3.6068 GAB -0.2226
-3.6068 GAD -0.2226
-3.6068 GADD -0.2226
-3.6068 GAG -0.2226
-3.6068 GAHR -0.2226
-3.6068 GAL -0.2226
-3.6068 GAP -0.2226
-3.6068 GAPP -0.2226
-3.6068 GAR -0.2226
-3.6068 GARR -0.2226
-3.6068 GAT -0.2226
-3.6068 GATT -0.2226
-3.6068 GNAT -0.2226
-3.6068 GOB -0.2226
-3.6068 GOCKE -0.2226
-3.6068 GOD -0.2226
-3.6068 GOHLKE -0.2226
-3.6068 GOHR -0.2226
-3.6068 GOLL -0.2226
-3.6068 GOLLE -0.2226
-3.3058 GOOD -0.2226
-3.6068 GOT -0.2226
-3.6068 GOTT -0.2226
-3.6068 HAAR -0.2226
-3.6068 HACK -0.2226
-3.6068 HACKE -0.2226
-3.6068 HAQ -0.2226
-3.6068 HAQUE -0.2226
-3.6068 HAT -0.2226
-3.6068 HATT -0.2226
-3.3058 IS -0.3008
-3.1297 IT -0.2224
-3.6068 JAC -0.2226
-3.6068 JACK -0.2226
-3.6068 JAGT -0.2226
-3.6068 JAHR -0.2226
-3.6068 JAR -0.2226
-3.6068 KAAS -0.2226
-3.6068 KACH -0.2226
-3.6068 KAHL -0.2226
-3.6068 KAHLE -0.2226
-3.6068 KAHN -0.2226
-3.6068 KAHNG -0.2226
-3.6068 KAHR -0.2226
-3.6068 KAHR'S -0.2226
-3.6068 KAHRE -0.2226
-3.6068 KAHRS -0.2226
-3.6068 KAL -0.2226
-3.6068 KALK -0.2226
-3.6068 KAM -0.2226
-3.6068 KAMM -0.2226
-3.6068 KAN -0.2226
-3.6068 KANDT -0.2226
-3.6068 KANG -0.2226
-3.6068 KANN -0.2226
-3.6068 KANNE -0.2226
-3.6068 KANT -0.2226
-3.6068 KAPP -0.2226
-3.6068 KARCH -0.2226
-3.6068 KARCZ -0.2226
-3.6068 KARG -0.2226
-3.6068 KARL -0.2226
-3.6068 KARN -0.2226
-3.6068 KAROW -0.2226
-3.6068 KARP -0.2226
-3.6068 KARR -0.2226
-3.6068 KARRER -0.2226
-3.6068 KARSH -0.2226
-3.6068 KASCH -0.2226
-3.6068 KASH -0.2226
-3.6068 KASS -0.2226
-3.6068 KAST -0.2226
-3.6068 KAT -0.2226
-3.6068 KATE -0.2226
-3.6068 KATH -0.2226
-3.6068 KATS -0.2226
-3.6068 KATT -0.2226
-3.6068 KATZ -0.2226
-3.6068 KAUK -0.2226
-3.6068 KEAR -0.2226
-3.6068 KECK -0.2226
-3.6068 KEEP -0.3009
-3.6068 KEHR -0.2226
-3.6068 KEIR -0.2226
-3.6068 KEITT -0.2226
-3.6068 KETT -0.2226
-3.6068 KHAD -0.2226
-3.6068 KHAN -0.2226
-3.6068 KHARG -0.2226
-3.6068 KHAT -0.2226
-3.6068 KICK -0.2226
-3.6068 KIER -0.2226
-3.6068 KIGHT -0.2226
-3.6068 KIR -0.2226
-3.6068 KIRCH -0.2226
-3.6068 KIRK -0.2226
-3.6068 KIRT -0.2226
-3.6068 KIT -0.2226
-3.6068 KITE -0.2226
-3.6068 KITT -0.2226
-3.6068 KLAR -0.2226
-3.6068 KLATT -0.2226
-3.6068 KNACK -0.2226
-3.6068 KOCK -0.2226
-3.6068 KOHN -0.2226
-3.6068 KOHR -0.2226
-3.6068 KOIKE -0.2226
-3.6068 KOK -0.2226
-3.6068 KOKE -0.2226
-3.6068 KOLK -0.2226
-3.6068 KOLL -0.2226
-3.6068 KOLLE -0.2226
-3.6068 KON -0.2226
-3.6068 KOOK -0.2226
-3.6068 KOOR -0.2226
-3.6068 KOPP -0.2226
-3.6068 KOPPE -0.2226
-3.6068 KOS -0.2226
-3.6068 KOSH -0.2226
-3.6068 KOT -0.2226
-3.6068 KOTCH -0.2226
-3.6068 KOTE -0.2226
-3.6068 KOTH -0.2226
-3.6068 KOTT -0.2226
-3.6068 KRACK -0.2226
-3.6068 KRACKE -0.2226
-3.6068 KRAT -0.2226
-3.6068 KRATT -0.2226
-3.6068 KUC -0.2226
-3.6068 KUCK -0.2226
-3.6068 KUECK -0.2226
-3.6068 KUHRT -0.2226
-3.6068 KUK -0.2226
-3.6068 KURK -0.2226
-3.6068 KURT -0.2226
-3.6068 KUT -0.2226
-3.6068 KWAK -0.2226
-3.6068 KYTE -0.2226
-3.6068 LAACK -0.2226
-3.6068 LAAKE -0.2226
-3.6068 LAB -0.2226
-3.6068 LABBE -0.2226
-3.6068 LAC -0.2226
-3.6068 LACK -0.2226
-3.6068 LAD -0.2226
-3.6068 LADD -0.2226
-3.6068 LAG -0.2226
-3.6068 LAGUE -0.2226
-3.6068 LAHR -0.2226
-3.6068 LAK -0.2226
-3.6068 LAP -0.2226
-3.6068 LAPP -0.2226
-3.6068 LAPPE -0.2226
-3.6068 LAR -0.2226
-3.6068 LAT -0.2226
-3.6068 LATKE -0.2226
-3.6068 LOB -0.2226
-3.6068 LOBB -0.2226
-3.6068 LOCH -0.2226
-3.6068 LOCK -0.2226
-3.6068 LOCKE -0.2226
-3.6068 LOK -0.2226
-3.6068 LOP -0.2226
-3.6068 LOPP -0.2226
-3.6068 LOT -0.2226
-3.6068 LOTT -0.2226
-3.6068 LOTTE -0.2226
-3.6068 MAC -0.2226
-3.6068 MACK -0.2226
-3.6068 MACKE -0.2226
-3.6068 MAHER -0.2226
-3.6068 MAHR -0.2226
-3.6068 MAK -0.2226
-3.6068 MAR -0.2226
-3.6068 MARR -0.2226
-3.6068 MAT -0.2226
-3.6068 MATT -0.2226
-3.6068 MATTE -0.2226
-3.6068 MEAGHER -0.2226
-3.6068 NACK -0.2226
-3.6068 NACKE -0.2226
-3.6068 NAT -0.2226
-3.6068 NO -0.2226
-3.3058 NOT -0.3007
-3.6068 PAAP -0.2226
-3.6068 PAAPE -0.2226
-3.6068 PAAR -0.2226
-3.6068 PAC -0.2226
-3.6068 PACK -0.2226
-3.6068 PAD -0.2226
-3.6068 PAHL -0.2226
-3.6068 PAK -0.2226
-3.6068 PAL -0.2226
-3.6068 PALL -0.2226
-3.6068 PAP -0.2226
-3.6068 PAPP -0.2226
-3.6068 PAQUE -0.2226
-3.6068 PAR -0.2226
-3.6068 PARR -0.2226
-3.6068 PAT -0.2226
-3.6068 PATT -0.2226
-3.6068 PFARR -0.2226
-3.6068 PHAR -0.2226
-3.6068 PHARR -0.2226
-3.6068 POCH -0.2226
-3.6068 POCK -0.2226
-3.6068 POD -0.2226
-3.6068 POG -0.2226
-3.6068 POP -0.2226
-3.6068 POPP -0.2226
-3.6068 POPPE -0.2226
-3.6068 POT -0.2226
-3.6068 POTT -0.2226
-3.6068 PRATT -0.2226
-3.6068 PRATTE -0.2226
-3.6068 PRETTY -0.3008
-3.6068 PTAK -0.2226
-3.6068 QOM -0.2226
-3.6068 QUACK -0.2226
-3.6068 QUARRE -0.2226
-3.6068 RAAB -0.2226
-3.6068 RAABE -0.2226
-3.6068 RAAD -0.2226
-3.6068 RAAP -0.2226
-3.6068 RAB -0.2226
-3.6068 RABB -0.2226
-3.6068 RAC -0.2226
-3.6068 RACH -0.2226
-3.6068 RACK -0.2226
-3.6068 RACKED -0.2226
-3.6068 RAD -0.2226
-3.6068 RADDE -0.2226
-3.6068 RAF -0.2226
-3.6068 RAFF -0.2226
-3.6068 RAFT -0.2226
-3.6068 RAG -0.2226
-3.6068 RAGUE -0.2226
-3.6068 RAHM -0.2226
-3.6068 RAHN -0.2226
-3.6068 RAIT -0.2226
-3.6068 RAITT -0.2226
-3.6068 RAK -0.2226
-3.6068 RAM -0.2226
-3.6068 RAMM -0.2226
-3.6068 RAN -0.2226
-3.6068 RANG -0.2226
-3.6068 RANH -0.2226
-3.6068 RANN -0.2226
-3.6068 RANT -0.2226
-3.6068 RAP -0.2226
-3.6068 RAPP -0.2226
-3.6068 RAPPE -0.2226
-3.6068 RAPPED -0.2226
-3.6068 RAPT -0.2226
-3.6068 RAR -0.2226
-3.6068 RAS -0.2226
-3.6068 RASCH -0.2226
-3.6068 RASCHE -0.2226
-3.6068 RASH -0.2226
-3.6068 RAST -0.2226
-3.3058 RAT -0.2226
-3.6068 RATA -0.2226
-3.6068 RATAY -0.2226
-3.6068 RATE -0.2226
-3.6068 RATH -0.2226
-3.6068 RATS -0.2226
-3.6068 RATTE -0.2226
-3.6068 RATTS -0.2226
-3.6068 RATTY -0.2226
-3.6068 RATZ -0.2226
-3.6068 RAZ -0.2226
-3.6068 REIT -0.2226
-3.6068 RET -0.2226
-3.6068 RHETT -0.2226
-3.1297 RIGHT -0.2225
-3.6068 RITE -0.2226
-3.6068 RITT -0.2226
-3.6068 ROAT -0.2226
-3.6068 ROB -0.2226
-3.6068 ROBB -0.2226
-3.6068 ROBBE -0.2226
-3.6068 ROC -0.2226
-3.6068 ROCH -0.2226
-3.6068 ROCK -0.2226
-3.6068 ROCKE -0.2226
-3.6068 ROCQUE -0.2226
-3.6068 ROD -0.2226
-3.6068 RODD -0.2226
-3.6068 ROG -0.2226
-3.6068 ROGGE -0.2226
-3.6068 ROOT -0.2226
-3.6068 ROPP -0.2226
-3.6068 ROT -0.2226
-3.6068 ROTE -0.2226
-3.6068 ROTT -0.2226
-3.6068 ROUGHT -0.2226
-3.6068 ROUT -0.2226
-3.6068 ROUTE -0.2226
-3.6068 ROUTT -0.2226
-3.6068 RUT -0.2226
-3.6068 RUTT -0.2226
-3.6068 SAAR -0.2226
-3.6068 SAC -0.2226
-3.6068 SACK -0.2226
-3.6068 SAK -0.2226
-3.6068 SAR -0.2226
-3.6068 SAT -0.2226
-3.6068 SCAR -0.2226
-3.6068 SCAT -0.2226
-3.6068 SCHAAR -0.2226
-3.6068 SCHACK -0.2226
-3.6068 SCHADT -0.2226
-3.6068 SCHAR -0.2226
-3.6068 SCHARR -0.2226
-3.6068 SHACK -0.2226
-3.6068 SHAQ -0.2226
-3.6068 SHATT -0.2226
-3.6068 SKAAR -0.2226
-3.6068 STAAR -0.2226
-3.6068 STAC -0.2226
-3.6068 STACK -0.2226
-3.6068 STAR -0.2226
-3.6068 STARR -0.2226
-3.6068 STAT -0.2226
-3.6068 STILL -0.3008
-3.6068 T'ANG -0.2226
-3.6068 TAAFFE -0.2226
-3.6068 TAB -0.2226
-3.6068 TABB -0.2226
-3.3058 TAC -0.2226
-3.6068 TACK -0.2226
-3.6068 TACKE -0.2226
-3.6068 TACKED -0.2226
-3.6068 TACKER -0.2226
-3.6068 TACKS -0.2226
-3.6068 TACKY -0.2226
-3.6068 TACT -0.2226
-3.6068 TAD -0.2226
-3.6068 TADD -0.2226
-3.6068 TAFF -0.2226
-3.6068 TAFFE -0.2226
-3.6068 TAFT -0.2226
-3.6068 TAG -0.2226
-3.6068 TAGG -0.2226
-3.6068 TAGGE -0.2226
-3.6068 TAGUE -0.2226
-3.6068 TAIT -0.2226
-3.6068 TAITE -0.2226
-3.6068 TAITT -0.2226
-3.6068 TAJ -0.2226
-3.6068 TAK -0.2226
-3.6068 TAKE -0.2226
-3.6068 TAKI -0.2226
-3.6068 TAL -0.2226
-3.6068 TALC -0.2226
-3.6068 TALK -0.2226
-3.6068 TAM -0.2226
-3.6068 TAMM -0.2226
-3.6068 TAN -0.2226
-3.6068 TANG -0.2226
-3.6068 TANK -0.2226
-3.6068 TANKE -0.2226
-3.6068 TANN -0.2226
-3.6068 TANT -0.2226
-3.6068 TAP -0.2226
-3.6068 TAPP -0.2226
-3.6068 TAPPE -0.2226
-3.6068 TAPPED -0.2226
-3.3058 TAR -0.2226
-3.6068 TARP -0.2226
-3.6068 TARR -0.2226
-3.6068 TARRED -0.2226
-3.6068 TART -0.2226
-3.6068 TARTE -0.2226
-3.6068 TARTT -0.2226
-3.6068 TASCH -0.2226
-3.6068 TASH -0.2226
-3.6068 TASK -0.2226
-3.6068 TASS -0.2226
-3.3058 TAT -0.2226
-3.6068 TATAR -0.2226
-3.6068 TATE -0.2226
-3.6068 TATSCH -0.2226
-3.6068 TATTER -0.2226
-3.6068 TATTY -0.2226
-3.6068 TAUGHT -0.2226
-3.6068 TAUKE -0.2226
-3.6068 TAUT -0.2226
-3.6068 TAX -0.2226
-3.6068 TEAC -0.2226
-3.6068 TEAK -0.2226
-3.6068 TEAR -0.2226
-3.6068 TEARE -0.2226
-3.6068 TEAT -0.2226
-3.6068 TEC -0.2226
-3.6068 TECH -0.2226
-3.6068 TECK -0.2226
-3.6068 TEER -0.2226
-3.6068 TEET -0.2226
-3.6068 TEICH -0.2226
-3.6068 TEK -0.2226
-3.6068 TET -0.2226
-3.6068 TETE -0.2226
-3.6068 THAR -0.2226
-3.3058 THAT -0.2224
-3.0048 THAT'S -0.3003
-3.6068 THOM -0.2226
-3.6068 TIC -0.2226
-3.6068 TICK -0.2226
-3.6068 TIER -0.2226
-3.6068 TIGHT -0.2226
-3.6068 TIKE -0.2226
-3.6068 TKACH -0.2226
-3.6068 TKACZ -0.2226
-3.6068 TOCK -0.2226
-3.6068 TOD -0.2226
-3.6068 TODD -0.2226
-3.6068 TOLLE -0.2226
-3.6068 TOM -0.2226
-3.6068 TONN -0.2226
-3.6068 TOOK -0.2226
-3.6068 TOOKE -0.2226
-3.6068 TOOT -0.2226
-3.6068 TOOTE -0.2226
-3.6068 TOP -0.2226
-3.6068 TOPP -0.2226
-3.6068 TOQUE -0.2226
-3.6068 TOR -0.2226
-3.6068 TORE -0.2226
-3.6068 TORR -0.2226
-3.6068 TORRE -0.2226
-3.6068 TOSH -0.2226
-3.6068 TOT -0.2226
-3.6068 TOTE -0.2226
-3.6068 TOTH -0.2226
-3.6068 TOUR -0.2226
-3.6068 TOUT -0.2226
-3.6068 TRAC -0.2226
-3.6068 TRACK -0.2226
-3.6068 TRAK -0.2226
-3.6068 TRUMPET -0.2226
-3.6068 TRYING -0.2226
-3.6068 TSAR -0.2226
-3.6068 TUCK -0.2226
-3.6068 TUITE -0.2226
-3.6068 TUK -0.2226
-3.6068 TURCK -0.2226
-3.6068 TURE -0.2226
-3.6068 TURK -0.2226
-3.6068 TUT -0.2226
-3.6068 TUTT -0.2226
-3.6068 TYKE -0.2226
-3.6068 TYRE -0.2226
-3.3058 VAT -0.2226
-3.6068 WACK -0.2226
-3.6068 WHACK -0.2226
-3.6068 WRACK -0.2226
-3.6068 WRACKED -0.2226
-3.6068 WRAGG -0.2226
-3.6068 WRAP -0.2226
-3.6068 WRAPPED -0.2226
-3.6068 WRATH -0.2226
-3.6068 WRIGHT -0.2226
-3.6068 WRIT -0.2226
-3.6068 WRITE -0.2226
-3.6068 WROTE -0.2226
-3.6068 WROUGHT -0.2226
-3.6068 YACK -0.2226
-3.6068 YAHR -0.2226
-3.6068 YAK -0.2226
-3.6068 YES -0.2226
-3.6068 ZACH -0.2226
-3.6068 ZACK -0.2226
-3.6068 ZAK -0.2226

\2-grams:
-3.1258 <s> ATTACK 0.0000
-2.8248 <s> BAAB 0.0000
-3.1258 <s> BAACK 0.0000
-3.1258 <s> BAADE 0.0000
-2.8248 <s> BAAR 0.0000
-3.1258 <s> BAB 0.0000
-3.1258 <s> BABB 0.0000
-3.1258 <s> BACH 0.0000
-3.1258 <s> BACK 0.0000
-3.1258 <s> BACKE 0.0000
-2.8248 <s> BAD 0.0000
-3.1258 <s> BAG 0.0000
-3.1258 <s> BAGG 0.0000
-3.1258 <s> BAGGE 0.0000
-3.1258 <s> BAHL 0.0000
-3.1258 <s> BAHR 0.0000
-3.1258 <s> BAHRE 0.0000
-3.1258 <s> BAHT 0.0000
-3.1258 <s> BAK 0.0000
-3.1258 <s> BAKKE 0.0000
-3.1258 <s> BAL 0.0000
-3.1258 <s> BAR 0.0000
-3.1258 <s> BARR 0.0000
-2.8248 <s> BAT 0.0000
-3.1258 <s> BATT 0.0000
-3.1258 <s> BATTE 0.0000
-3.1258 <s> BHATT 0.0000
-3.1258 <s> BOB 0.0000
-3.1258 <s> BOBB 0.0000
-3.1258 <s> BOCH 0.0000
-3.1258 <s> BOCK 0.0000
-3.1258 <s> BOG 0.0000
-3.1258 <s> BOHLKE 0.0000
-3.1258 <s> BOK 0.0000
-3.1258 <s> BOL 0.0000
-3.1258 <s> BOLLE 0.0000
-3.1258 <s> BOP 0.0000
-3.1258 <s> BOPP 0.0000
-3.1258 <s> BOTT 0.0000
-3.1258 <s> BOUGHT 0.0000
-3.1258 <s> BRAT 0.0000
-3.1258 <s> BRATT 0.0000
-3.1258 <s> CAAN 0.0000
-3.1258 <s> CAB 0.0000
-2.8248 <s> CAC 0.0000
-3.1258 <s> CAC'S 0.0000
-3.1258 <s> CACHE 0.0000
-3.1258 <s> CAD 0.0000
-3.1258 <s> CAEN 0.0000
-3.1258 <s> CAHN 0.0000
-3.1258 <s> CAIRE 0.0000
-3.1258 <s> CAKE 0.0000
-3.1258 <s> CAL 0.0000
-3.1258 <s> CALF 0.0000
-3.1258 <s> CALFED 0.0000
-3.1258 <s> CALK 0.0000
-3.1258 <s> CALM 0.0000
-3.1258 <s> CAM 0.0000
-3.1258 <s> CAMM 0.0000
-3.1258 <s> CAN 0.0000
-3.1258 <s> CAN'T 0.0000
-3.1258 <s> CANN 0.0000
-3.1258 <s> CANT 0.0000
-3.1258 <s> CAP 0.0000
-3.1258 <s> CAPP 0.0000
-3.1258 <s> CAPPED 0.0000
-3.1258 <s> CAQ 0.0000
-3.1258 <s> CAQ'S 0.0000
-2.8248 <s> CAR 0.0000
-3.1258 <s> CAR'S 0.0000
-3.1258 <s> CARD 0.0000
-3.1258 <s> CARE 0.0000
-3.1258 <s> CARL 0.0000
-3.1258 <s> CARLL 0.0000
-3.1258 <s> CARN 0.0000
-3.1258 <s> CARNE 0.0000
-3.1258 <s> CARO 0.0000
-3.1258 <s> CARP 0.0000
-3.1258 <s> CARR 0.0000
-3.1258 <s> CARR'S 0.0000
-3.1258 <s> CARRA 0.0000
-3.1258 <s> CARRE 0.0000
-3.1258 <s> CARRO 0.0000
-3.1258 <s> CARS 0.0000
-3.1258 <s> CARS' 0.0000
-3.1258 <s> CARSE 0.0000
-3.1258 <s> CART 0.0000
-3.1258 <s> CARTE 0.0000
-3.1258 <s> CARVE 0.0000
-3.1258 <s> CAS 0.0000
-3.1258 <s> CASH 0.0000
-3.1258 <s> CASHED 0.0000
-3.1258 <s> CASK 0.0000
-3.1258 <s> CASS 0.0000
-3.1258 <s> CAST 0.0000
-3.1258 <s> CASTE 0.0000
-2.8248 <s> CAT 0.0000
-3.1258 <s> CAT'S 0.0000
-3.1258 <s> CATCH 0.0000
-3.1258 <s> CATE 0.0000
-3.1258 <s> CATOE 0.0000
-3.1258 <s> CATS 0.0000
-3.1258 <s> CATT 0.0000
-3.1258 <s> CATTO 0.0000
-3.1258 <s> CATTY 0.0000
-3.1258 <s> CAUGHT 0.0000
-3.1258 <s> CAUL 0.0000
-3.1258 <s> CAULK 0.0000
-3.1258 <s> CAUSE 0.0000
-3.1258 <s> CHAR 0.0000
-3.1258 <s> CHAT 0.0000
-3.1258 <s> CLAAR 0.0000
-3.1258 <s> CLACK 0.0000
-3.1258 <s> CLAR 0.0000
-3.1258 <s> COAR 0.0000
-3.1258 <s> COAT 0.0000
-3.1258 <s> COB 0.0000
-3.1258 <s> COBB 0.0000
-3.1258 <s> COCK 0.0000
-3.1258 <s> COCKE 0.0000
-3.1258 <s> COD 0.0000
-3.1258 <s> CODD 0.0000
-3.1258 <s> COEUR 0.0000
-3.1258 <s> COHR 0.0000
-3.1258 <s> COIT 0.0000
-3.1258 <s> COKE 0.0000
-3.1258 <s> COLL 0.0000
-3.1258 <s> COM 0.0000
-3.1258 <s> CON 0.0000
-3.1258 <s> CONN 0.0000
-3.1258 <s> CONN. 0.0000
-3.1258 <s> COOK 0.0000
-3.1258 <s> COOKE 0.0000
-3.1258 <s> COOT 0.0000
-3.1258 <s> COOTE 0.0000
-3.1258 <s> COP 0.0000
-3.1258 <s> COPP 0.0000
-3.1258 <s> COR 0.0000
-3.1258 <s> CORE 0.0000
-3.1258 <s> CORPS 0.0000
-3.1258 <s> CORR 0.0000
-3.1258 <s> COT 0.0000
-3.1258 <s> COTE 0.0000
-3.1258 <s> COTT 0.0000
-3.1258 <s> COUGH 0.0000
-3.1258 <s> COZ 0.0000
-3.1258 <s> CRACK 0.0000
-3.1258 <s> CSAR 0.0000
-3.1258 <s> CURT 0.0000
-3.1258 <s> CUT 0.0000
-3.1258 <s> CZAR 0.0000
-3.1258 <s> DAB 0.0000
-3.1258 <s> DAC 0.0000
-3.1258 <s> DACK 0.0000
-3.1258 <s> DAD 0.0000
-3.1258 <s> DAG 0.0000
-3.1258 <s> DAGG 0.0000
-3.1258 <s> DAGUE 0.0000
-3.1258 <s> DAHL 0.0000
-3.1258 <s> DAK 0.0000
-3.1258 <s> DAL 0.0000
-3.1258 <s> DAPP 0.0000
-3.1258 <s> DAR 0.0000
-3.1258 <s> DARR 0.0000
-3.1258 <s> DAT 0.0000
-3.1258 <s> DOB 0.0000
-3.1258 <s> DOBB 0.0000
-3.1258 <s> DOC 0.0000
-3.1258 <s> DOCK 0.0000
-3.1258 <s> DODD 0.0000
-3.1258 <s> DOL 0.0000
-3.1258 <s> DOLL 0.0000
-3.1258 <s> DOLLE 0.0000
-3.1258 <s> DOPP 0.0000
-3.1258 <s> DOT 0.0000
-3.1258 <s> DOTT 0.0000
-3.1258 <s> FAC 0.0000
-3.1258 <s> FAHR 0.0000
-3.1258 <s> FAR 0.0000
-3.1258 <s> FARR 0.0000
-3.1258 <s> FAT 0.0000
-3.1258 <s> GAAL 0.0000
-3.1258 <s> GAAR 0.0000
-3.1258 <s> GAB 0.0000
-3.1258 <s> GAD 0.0000
-3.1258 <s> GADD 0.0000
-3.1258 <s> GAG 0.0000
-3.1258 <s> GAHR 0.0000
-3.1258 <s> GAL 0.0000
-3.1258 <s> GAP 0.0000
-3.1258 <s> GAPP 0.0000
-3.1258 <s> GAR 0.0000
-3.1258 <s> GARR 0.0000
-3.1258 <s> GAT 0.0000
-3.1258 <s> GATT 0.0000
-3.1258 <s> GNAT 0.0000
-3.1258 <s> GOB 0.0000
-3.1258 <s> GOCKE 0.0000
-3.1258 <s> GOD 0.0000
-3.1258 <s> GOHLKE 0.0000
-3.1258 <s> GOHR 0.0000
-3.1258 <s> GOLL 0.0000
-3.1258 <s> GOLLE 0.0000
-3.1258 <s> GOOD 0.0000
-3.1258 <s> GOT 0.0000
-3.1258 <s> GOTT 0.0000
-3.1258 <s> HAAR 0.0000
-3.1258 <s> HACK 0.0000
-3.1258 <s> HACKE 0.0000
-3.1258 <s> HAQ 0.0000
-3.1258 <s> HAQUE 0.0000
-3.1258 <s> HAT 0.0000
-3.1258 <s> HATT 0.0000
-3.1258 <s> IT -0.2218
-3.1258 <s> JAC 0.0000
-3.1258 <s> JACK 0.0000
-3.1258 <s> JAGT 0.0000
-3.1258 <s> JAHR 0.0000
-3.1258 <s> JAR 0.0000
-3.1258 <s> KAAS 0.0000
-3.1258 <s> KACH 0.0000
-3.1258 <s> KAHL 0.0000
-3.1258 <s> KAHLE 0.0000
-3.1258 <s> KAHN 0.0000
-3.1258 <s> KAHNG 0.0000
-3.1258 <s> KAHR 0.0000
-3.1258 <s> KAHR'S 0.0000
-3.1258 <s> KAHRE 0.0000
-3.1258 <s> KAHRS 0.0000
-3.1258 <s> KAL 0.0000
-3.1258 <s> KALK 0.0000
-3.1258 <s> KAM 0.0000
-3.1258 <s> KAMM 0.0000
-3.1258 <s> KAN 0.0000
-3.1258 <s> KANDT 0.0000
-3.1258 <s> KANG 0.0000
-3.1258 <s> KANN 0.0000
-3.1258 <s> KANNE 0.0000
-3.1258 <s> KANT 0.0000
-3.1258 <s> KAPP 0.0000
-3.1258 <s> KARCH 0.0000
-3.1258 <s> KARCZ 0.0000
-3.1258 <s> KARG 0.0000
-3.1258 <s> KARL 0.0000
-3.1258 <s> KARN 0.0000
-3.1258 <s> KAROW 0.0000
-3.1258 <s> KARP 0.0000
-3.1258 <s> KARR 0.0000
-3.1258 <s> KARRER 0.0000
-3.1258 <s> KARSH 0.0000
-3.1258 <s> KASCH 0.0000
-3.1258 <s> KASH 0.0000
-3.1258 <s> KASS 0.0000
-3.1258 <s> KAST 0.0000
-3.1258 <s> KAT 0.0000
-3.1258 <s> KATE 0.0000
-3.1258 <s> KATH 0.0000
-3.1258 <s> KATS 0.0000
-3.1258 <s> KATT 0.0000
-3.1258 <s> KATZ 0.0000
-3.1258 <s> KAUK 0.0000
-3.1258 <s> KEAR 0.0000
-3.1258 <s> KECK 0.0000
-3.1258 <s> KEEP 0.0000
-3.1258 <s> KEHR 0.0000
-3.1258 <s> KEIR 0.0000
-3.1258 <s> KEITT 0.0000
-3.1258 <s> KETT 0.0000
-3.1258 <s> KHAD 0.0000
-3.1258 <s> KHAN 0.0000
-3.1258 <s> KHARG 0.0000
-3.1258 <s> KHAT 0.0000
-3.1258 <s> KICK 0.0000
-3.1258 <s> KIER 0.0000
-3.1258 <s> KIGHT 0.0000
-3.1258 <s> KIR 0.0000
-3.1258 <s> KIRCH 0.0000
-3.1258 <s> KIRK 0.0000
-3.1258 <s> KIRT 0.0000
-3.1258 <s> KIT 0.0000
-3.1258 <s> KITE 0.0000
-3.1258 <s> KITT 0.0000
-3.1258 <s> KLAR 0.0000
-3.1258 <s> KLATT 0.0000
-3.1258 <s> KNACK 0.0000
-3.1258 <s> KOCK 0.0000
-3.1258 <s> KOHN 0.0000
-3.1258 <s> KOHR 0.0000
-3.1258 <s> KOIKE 0.0000
-3.1258 <s> KOK 0.0000
-3.1258 <s> KOKE 0.0000
-3.1258 <s> KOLK 0.0000
-3.1258 <s> KOLL 0.0000
-3.1258 <s> KOLLE 0.0000
-3.1258 <s> KON 0.0000
-3.1258 <s> KOOK 0.0000
-3.1258 <s> KOOR 0.0000
-3.1258 <s> KOPP 0.0000
-3.1258 <s> KOPPE 0.0000
-3.1258 <s> KOS 0.0000
-3.1258 <s> KOSH 0.0000
-3.1258 <s> KOT 0.0000
-3.1258 <s> KOTCH 0.0000
-3.1258 <s> KOTE 0.0000
-3.1258 <s> KOTH 0.0000
-3.1258 <s> KOTT 0.0000
-3.1258 <s> KRACK 0.0000
-3.1258 <s> KRACKE 0.0000
-3.1258 <s> KRAT 0.0000
-3.1258 <s> KRATT 0.0000
-3.1258 <s> KUC 0.0000
-3.1258 <s> KUCK 0.0000
-3.1258 <s> KUECK 0.0000
-3.1258 <s> KUHRT 0.0000
-3.1258 <s> KUK 0.0000
-3.1258 <s> KURK 0.0000
-3.1258 <s> KURT 0.0000
-3.1258 <s> KUT 0.0000
-3.1258 <s> KWAK 0.0000
-3.1258 <s> KYTE 0.0000
-3.1258 <s> LAACK 0.0000
-3.1258 <s> LAAKE 0.0000
-3.1258 <s> LAB 0.0000
-3.1258 <s> LABBE 0.0000
-3.1258 <s> LAC 0.0000
-3.1258 <s> LACK 0.0000
-3.1258 <s> LAD 0.0000
-3.1258 <s> LADD 0.0000
-3.1258 <s> LAG 0.0000
-3.1258 <s> LAGUE 0.0000
-3.1258 <s> LAHR 0.0000
-3.1258 <s> LAK 0.0000
-3.1258 <s> LAP 0.0000
-3.1258 <s> LAPP 0.0000
-3.1258 <s> LAPPE 0.0000
-3.1258 <s> LAR 0.0000
-3.1258 <s> LAT 0.0000
-3.1258 <s> LATKE 0.0000
-3.1258 <s> LOB 0.0000
-3.1258 <s> LOBB 0.0000
-3.1258 <s> LOCH 0.0000
-3.1258 <s> LOCK 0.0000
-3.1258 <s> LOCKE 0.0000
-3.1258 <s> LOK 0.0000
-3.1258 <s> LOP 0.0000
-3.1258 <s> LOPP 0.0000
-3.1258 <s> LOT 0.0000
-3.1258 <s> LOTT 0.0000
-3.1258 <s> LOTTE 0.0000
-3.1258 <s> MAC 0.0000
-3.1258 <s> MACK 0.0000
-3.1258 <s> MACKE 0.0000
-3.1258 <s> MAHER 0.0000
-3.1258 <s> MAHR 0.0000
-3.1258 <s> MAK 0.0000
-3.1258 <s> MAR 0.0000
-3.1258 <s> MARR 0.0000
-3.1258 <s> MAT 0.0000
-3.1258 <s> MATT 0.0000
-3.1258 <s> MATTE 0.0000
-3.1258 <s> MEAGHER 0.0000
-3.1258 <s> NACK 0.0000
-3.1258 <s> NACKE 0.0000
-3.1258 <s> NAT 0.0000
-3.1258 <s> NO 0.0000
-3.1258 <s> PAAP 0.0000
-3.1258 <s> PAAPE 0.0000
-3.1258 <s> PAAR 0.0000
-3.1258 <s> PAC 0.0000
-3.1258 <s> PACK 0.0000
-3.1258 <s> PAD 0.0000
-3.1258 <s> PAHL 0.0000
-3.1258 <s> PAK 0.0000
-3.1258 <s> PAL 0.0000
-3.1258 <s> PALL 0.0000
-3.1258 <s> PAP 0.0000
-3.1258 <s> PAPP 0.0000
-3.1258 <s> PAQUE 0.0000
-3.1258 <s> PAR 0.0000
-3.1258 <s> PARR 0.0000
-3.1258 <s> PAT 0.0000
-3.1258 <s> PATT 0.0000
-3.1258 <s> PFARR 0.0000
-3.1258 <s> PHAR 0.0000
-3.1258 <s> PHARR 0.0000
-3.1258 <s> POCH 0.0000
-3.1258 <s> POCK 0.0000
-3.1258 <s> POD 0.0000
-3.1258 <s> POG 0.0000
-3.1258 <s> POP 0.0000
-3.1258 <s> POPP 0.0000
-3.1258 <s> POPPE 0.0000
-3.1258 <s> POT 0.0000
-3.1258 <s> POTT 0.0000
-3.1258 <s> PRATT 0.0000
-3.1258 <s> PRATTE 0.0000
-3.1258 <s> PTAK 0.0000
-3.1258 <s> QOM 0.0000
-3.1258 <s> QUACK 0.0000
-3.1258 <s> QUARRE 0.0000
-3.1258 <s> RAAB 0.0000
-3.1258 <s> RAABE 0.0000
-3.1258 <s> RAAD 0.0000
-3.1258 <s> RAAP 0.0000
-3.1258 <s> RAB 0.0000
-3.1258 <s> RABB 0.0000
-3.1258 <s> RAC 0.0000
-3.1258 <s> RACH 0.0000
-3.1258 <s> RACK 0.0000
-3.1258 <s> RACKED 0.0000
-3.1258 <s> RAD 0.0000
-3.1258 <s> RADDE 0.0000
-3.1258 <s> RAF 0.0000
-3.1258 <s> RAFF 0.0000
-3.1258 <s> RAFT 0.0000
-3.1258 <s> RAG 0.0000
-3.1258 <s> RAGUE 0.0000
-3.1258 <s> RAHM 0.0000
-3.1258 <s> RAHN 0.0000
-3.1258 <s> RAIT 0.0000
-3.1258 <s> RAITT 0.0000
-3.1258 <s> RAK 0.0000
-3.1258 <s> RAM 0.0000
-3.1258 <s> RAMM 0.0000
-3.1258 <s> RAN 0.0000
-3.1258 <s> RANG 0.0000
-3.1258 <s> RANH 0.0000
-3.1258 <s> RANN 0.0000
-3.1258 <s> RANT 0.0000
-3.1258 <s> RAP 0.0000
-3.1258 <s> RAPP 0.0000
-3.1258 <s> RAPPE 0.0000
-3.1258 <s> RAPPED 0.0000
-3.1258 <s> RAPT 0.0000
-3.1258 <s> RAR 0.0000
-3.1258 <s> RAS 0.0000
-3.1258 <s> RASCH 0.0000
-3.1258 <s> RASCHE 0.0000
-3.1258 <s> RASH 0.0000
-3.1258 <s> RAST 0.0000
-2.8248 <s> RAT 0.0000
-3.1258 <s> RATA 0.0000
-3.1258 <s> RATAY 0.0000
-3.1258 <s> RATE 0.0000
-3.1258 <s> RATH 0.0000
-3.1258 <s> RATS 0.0000
-3.1258 <s> RATTE 0.0000
-3.1258 <s> RATTS 0.0000
-3.1258 <s> RATTY 0.0000
-3.1258 <s> RATZ 0.0000
-3.1258 <s> RAZ 0.0000
-3.1258 <s> REIT 0.0000
-3.1258 <s> RET 0.0000
-3.1258 <s> RHETT 0.0000
-3.1258 <s> RIGHT -0.1249
-3.1258 <s> RITE 0.0000
-3.1258 <s> RITT 0.0000
-3.1258 <s> ROAT 0.0000
-3.1258 <s> ROB 0.0000
-3.1258 <s> ROBB 0.0000
-3.1258 <s> ROBBE 0.0000
-3.1258 <s> ROC 0.0000
-3.1258 <s> ROCH 0.0000
-3.1258 <s> ROCK 0.0000
-3.1258 <s> ROCKE 0.0000
-3.1258 <s> ROCQUE 0.0000
-3.1258 <s> ROD 0.0000
-3.1258 <s> RODD 0.0000
-3.1258 <s> ROG 0.0000
-3.1258 <s> ROGGE 0.0000
-3.1258 <s> ROOT 0.0000
-3.1258 <s> ROPP 0.0000
-3.1258 <s> ROT 0.0000
-3.1258 <s> ROTE 0.0000
-3.1258 <s> ROTT 0.0000
-3.1258 <s> ROUGHT 0.0000
-3.1258 <s> ROUT 0.0000
-3.1258 <s> ROUTE 0.0000
-3.1258 <s> ROUTT 0.0000
-3.1258 <s> RUT 0.0000
-3.1258 <s> RUTT 0.0000
-3.1258 <s> SAAR 0.0000
-3.1258 <s> SAC 0.0000
-3.1258 <s> SACK 0.0000
-3.1258 <s> SAK 0.0000
-3.1258 <s> SAR 0.0000
-3.1258 <s> SAT 0.0000
-3.1258 <s> SCAR 0.0000
-3.1258 <s> SCAT 0.0000
-3.1258 <s> SCHAAR 0.0000
-3.1258 <s> SCHACK 0.0000
-3.1258 <s> SCHADT 0.0000
-3.1258 <s> SCHAR 0.0000
-3.1258 <s> SCHARR 0.0000
-3.1258 <s> SHACK 0.0000
-3.1258 <s> SHAQ 0.0000
-3.1258 <s> SHATT 0.0000
-3.1258 <s> SKAAR 0.0000
-3.1258 <s> STAAR 0.0000
-3.1258 <s> STAC 0.0000
-3.1258 <s> STACK 0.0000
-3.1258 <s> STAR 0.0000
-3.1258 <s> STARR 0.0000
-3.1258 <s> STAT 0.0000
-3.1258 <s> STILL 0.0000
-3.1258 <s> T'ANG 0.0000
-3.1258 <s> TAAFFE 0.0000
-3.1258 <s> TAB 0.0000
-3.1258 <s> TABB 0.0000
-2.8248 <s> TAC 0.0000
-3.1258 <s> TACK 0.0000
-3.1258 <s> TACKE 0.0000
-3.1258 <s> TACKED 0.0000
-3.1258 <s> TACKER 0.0000
-3.1258 <s> TACKS 0.0000
-3.1258 <s> TACKY 0.0000
-3.1258 <s> TACT 0.0000
-3.1258 <s> TAD 0.0000
-3.1258 <s> TADD 0.0000
-3.1258 <s> TAFF 0.0000
-3.1258 <s> TAFFE 0.0000
-3.1258 <s> TAFT 0.0000
-3.1258 <s> TAG 0.0000
-3.1258 <s> TAGG 0.0000
-3.1258 <s> TAGGE 0.0000
-3.1258 <s> TAGUE 0.0000
-3.1258 <s> TAIT 0.0000
-3.1258 <s> TAITE 0.0000
-3.1258 <s> TAITT 0.0000
-3.1258 <s> TAJ 0.0000
-3.1258 <s> TAK 0.0000
-3.1258 <s> TAKE 0.0000
-3.1258 <s> TAKI 0.0000
-3.1258 <s> TAL 0.0000
-3.1258 <s> TALC 0.0000
-3.1258 <s> TALK 0.0000
-3.1258 <s> TAM 0.0000
-3.1258 <s> TAMM 0.0000
-3.1258 <s> TAN 0.0000
-3.1258 <s> TANG 0.0000
-3.1258 <s> TANK 0.0000
-3.1258 <s> TANKE 0.0000
-3.1258 <s> TANN 0.0000
-3.1258 <s> TANT 0.0000
-3.1258 <s> TAP 0.0000
-3.1258 <s> TAPP 0.0000
-3.1258 <s> TAPPE 0.0000
-3.1258 <s> TAPPED 0.0000
-2.8248 <s> TAR 0.0000
-3.1258 <s> TARP 0.0000
-3.1258 <s> TARR 0.0000
-3.1258 <s> TARRED 0.0000
-3.1258 <s> TART 0.0000
-3.1258 <s> TARTE 0.0000
-3.1258 <s> TARTT 0.0000
-3.1258 <s> TASCH 0.0000
-3.1258 <s> TASH 0.0000
-3.1258 <s> TASK 0.0000
-3.1258 <s> TASS 0.0000
-2.8248 <s> TAT 0.0000
-3.1258 <s> TATAR 0.0000
-3.1258 <s> TATE 0.0000
-3.1258 <s> TATSCH 0.0000
-3.1258 <s> TATTER 0.0000
-3.1258 <s> TATTY 0.0000
-3.1258 <s> TAUGHT 0.0000
-3.1258 <s> TAUKE 0.0000
-3.1258 <s> TAUT 0.0000
-3.1258 <s> TAX 0.0000
-3.1258 <s> TEAC 0.0000
-3.1258 <s> TEAK 0.0000
-3.1258 <s> TEAR 0.0000
-3.1258 <s> TEARE 0.0000
-3.1258 <s> TEAT 0.0000
-3.1258 <s> TEC 0.0000
-3.1258 <s> TECH 0.0000
-3.1258 <s> TECK 0.0000
-3.1258 <s> TEER 0.0000
-3.1258 <s> TEET 0.0000
-3.1258 <s> TEICH 0.0000
-3.1258 <s> TEK 0.0000
-3.1258 <s> TET 0.0000
-3.1258 <s> TETE 0.0000
-3.1258 <s> THAR 0.0000
-2.8248 <s> THAT 0.0000
-2.5237 <s> THAT'S 0.0000
-3.1258 <s> THOM 0.0000
-3.1258 <s> TIC 0.0000
-3.1258 <s> TICK 0.0000
-3.1258 <s> TIER 0.0000
-3.1258 <s> TIGHT 0.0000
-3.1258 <s> TIKE 0.0000
-3.1258 <s> TKACH 0.0000
-3.1258 <s> TKACZ 0.0000
-3.1258 <s> TOCK 0.0000
-3.1258 <s> TOD 0.0000
-3.1258 <s> TODD 0.0000
-3.1258 <s> TOLLE 0.0000
-3.1258 <s> TOM 0.0000
-3.1258 <s> TONN 0.0000
-3.1258 <s> TOOK 0.0000
-3.1258 <s> TOOKE 0.0000
-3.1258 <s> TOOT 0.0000
-3.1258 <s> TOOTE 0.0000
-3.1258 <s> TOP 0.0000
-3.1258 <s> TOPP 0.0000
-3.1258 <s> TOQUE 0.0000
-3.1258 <s> TOR 0.0000
-3.1258 <s> TORE 0.0000
-3.1258 <s> TORR 0.0000
-3.1258 <s> TORRE 0.0000
-3.1258 <s> TOSH 0.0000
-3.1258 <s> TOT 0.0000
-3.1258 <s> TOTE 0.0000
-3.1258 <s> TOTH 0.0000
-3.1258 <s> TOUR 0.0000
-3.1258 <s> TOUT 0.0000
-3.1258 <s> TRAC 0.0000
-3.1258 <s> TRACK 0.0000
-3.1258 <s> TRAK 0.0000
-3.1258 <s> TSAR 0.0000
-3.1258 <s> TUCK 0.0000
-3.1258 <s> TUITE 0.0000
-3.1258 <s> TUK 0.0000
-3.1258 <s> TURCK 0.0000
-3.1258 <s> TURE 0.0000
-3.1258 <s> TURK 0.0000
-3.1258 <s> TUT 0.0000
-3.1258 <s> TUTT 0.0000
-3.1258 <s> TYKE 0.0000
-3.1258 <s> TYRE 0.0000
-2.8248 <s> VAT 0.0000
-3.1258 <s> WACK 0.0000
-3.1258 <s> WHACK 0.0000
-3.1258 <s> WRACK 0.0000
-3.1258 <s> WRACKED 0.0000
-3.1258 <s> WRAGG 0.0000
-3.1258 <s> WRAP 0.0000
-3.1258 <s> WRAPPED 0.0000
-3.1258 <s> WRATH 0.0000
-3.1258 <s> WRIGHT 0.0000
-3.1258 <s> WRIT 0.0000
-3.1258 <s> WRITE 0.0000
-3.1258 <s> WROTE 0.0000
-3.1258 <s> WROUGHT 0.0000
-3.1258 <s> YACK 0.0000
-3.1258 <s> YAHR 0.0000
-3.1258 <s> YAK 0.0000
-3.1258 <s> YES 0.0000
-3.1258 <s> ZACH 0.0000
-3.1258 <s> ZACK 0.0000
-3.1258 <s> ZAK 0.0000
-0.6021 A FLUTE 0.0000
-0.6021 A TRUMPET 0.0000
-0.3010 ALL </s> -0.3010
-0.3010 ALMOST IT -0.1249
-0.3010 AT ALL 0.0000
-0.3010 ATTACK </s> -0.3010
-0.3010 BAAB </s> -0.3010
-0.3010 BAACK </s> -0.3010
-0.3010 BAADE </s> -0.3010
-0.3010 BAAR </s> -0.3010
-0.3010 BAB </s> -0.3010
-0.3010 BABB </s> -0.3010
-0.3010 BACH </s> -0.3010
-0.3010 BACK </s> -0.3010
-0.3010 BACKE </s> -0.3010
-0.3010 BAD </s> -0.3010
-0.3010 BAG </s> -0.3010
-0.3010 BAGG </s> -0.3010
-0.3010 BAGGE </s> -0.3010
-0.3010 BAHL </s> -0.3010
-0.3010 BAHR </s> -0.3010
-0.3010 BAHRE </s> -0.3010
-0.3010 BAHT </s> -0.3010
-0.3010 BAK </s> -0.3010
-0.3010 BAKKE </s> -0.3010
-0.3010 BAL </s> -0.3010
-0.3010 BAR </s> -0.3010
-0.3010 BARR </s> -0.3010
-0.3010 BAT </s> -0.3010
-0.3010 BATT </s> -0.3010
-0.3010 BATTE </s> -0.3010
-0.3010 BHATT </s> -0.3010
-0.3010 BOB </s> -0.3010
-0.3010 BOBB </s> -0.3010
-0.3010 BOCH </s> -0.3010
-0.3010 BOCK </s> -0.3010
-0.3010 BOG </s> -0.3010
-0.3010 BOHLKE </s> -0.3010
-0.3010 BOK </s> -0.3010
-0.3010 BOL </s> -0.3010
-0.3010 BOLLE </s> -0.3010
-0.3010 BOP </s> -0.3010
-0.3010 BOPP </s> -0.3010
-0.3010 BOTT </s> -0.3010
-0.3010 BOUGHT </s> -0.3010
-0.3010 BRAT </s> -0.3010
-0.3010 BRATT </s> -0.3010
-0.3010 CAAN </s> -0.3010
-0.3010 CAB </s> -0.3010
-0.3010 CAC </s> -0.3010
-0.3010 CAC'S </s> -0.3010
-0.3010 CACHE </s> -0.3010
-0.3010 CAD </s> -0.3010
-0.3010 CAEN </s> -0.3010
-0.3010 CAHN </s> -0.3010
-0.3010 CAIRE </s> -0.3010
-0.3010 CAKE </s> -0.3010
-0.3010 CAL </s> -0.3010
-0.3010 CALF </s> -0.3010
-0.3010 CALFED </s> -0.3010
-0.3010 CALK </s> -0.3010
-0.3010 CALM </s> -0.3010
-0.3010 CAM </s> -0.3010
-0.3010 CAMM </s> -0.3010
-0.3010 CAN </s> -0.3010
-0.3010 CAN'T </s> -0.3010
-0.3010 CANN </s> -0.3010
-0.3010 CANT </s> -0.3010
-0.3010 CAP </s> -0.3010
-0.3010 CAPP </s> -0.3010
-0.3010 CAPPED </s> -0.3010
-0.3010 CAQ </s> -0.3010
-0.3010 CAQ'S </s> -0.3010
-0.3010 CAR </s> -0.3010
-0.3010 CAR'S </s> -0.3010
-0.3010 CARD </s> -0.3010
-0.3010 CARE </s> -0.3010
-0.3010 CARL </s> -0.3010
-0.3010 CARLL </s> -0.3010
-0.3010 CARN </s> -0.3010
-0.3010 CARNE </s> -0.3010
-0.3010 CARO </s> -0.3010
-0.3010 CARP </s> -0.3010
-0.3010 CARR </s> -0.3010
-0.3010 CARR'S </s> -0.3010
-0.3010 CARRA </s> -0.3010
-0.3010 CARRE </s> -0.3010
-0.3010 CARRO </s> -0.3010
-0.3010 CARS </s> -0.3010
-0.3010 CARS' </s> -0.3010
-0.3010 CARSE </s> -0.3010
-0.3010 CART </s> -0.3010
-0.3010 CARTE </s> -0.3010
-0.3010 CARVE </s> -0.3010
-0.3010 CAS </s> -0.3010
-0.3010 CASH </s> -0.3010
-0.3010 CASHED </s> -0.3010
-0.3010 CASK </s> -0.3010
-0.3010 CASS </s> -0.3010
-0.3010 CAST </s> -0.3010
-0.3010 CASTE </s> -0.3010
-0.3010 CAT </s> -0.3010
-0.3010 CAT'S </s> -0.3010
-0.3010 CATCH </s> -0.3010
-0.3010 CATE </s> -0.3010
-0.3010 CATOE </s> -0.3010
-0.3010 CATS </s> -0.3010
-0.3010 CATT </s> -0.3010
-0.3010 CATTO </s> -0.3010
-0.3010 CATTY </s> -0.3010
-0.3010 CAUGHT </s> -0.3010
-0.3010 CAUL </s> -0.3010
-0.3010 CAULK </s> -0.3010
-0.3010 CAUSE </s> -0.3010
-0.3010 CHAR </s> -0.3010
-0.3010 CHAT </s> -0.3010
-0.3010 CLAAR </s> -0.3010
-0.3010 CLACK </s> -0.3010
-0.3010 CLAR </s> -0.3010
-0.3010 COAR </s> -0.3010
-0.3010 COAT </s> -0.3010
-0.3010 COB </s> -0.3010
-0.3010 COBB </s> -0.3010
-0.3010 COCK </s> -0.3010
-0.3010 COCKE </s> -0.3010
-0.3010 COD </s> -0.3010
-0.3010 CODD </s> -0.3010
-0.3010 COEUR </s> -0.3010
-0.3010 COHR </s> -0.3010
-0.3010 COIT </s> -0.3010
-0.3010 COKE </s> -0.3010
-0.3010 COLL </s> -0.3010
-0.3010 COM </s> -0.3010
-0.3010 CON </s> -0.3010
-0.3010 CONN </s> -0.3010
-0.3010 CONN. </s> -0.3010
-0.3010 COOK </s> -0.3010
-0.3010 COOKE </s> -0.3010
-0.3010 COOT </s> -0.3010
-0.3010 COOTE </s> -0.3010
-0.3010 COP </s> -0.3010
-0.3010 COPP </s> -0.3010
-0.3010 COR </s> -0.3010
-0.3010 CORE </s> -0.3010
-0.3010 CORPS </s> -0.3010
-0.3010 CORR </s> -0.3010
-0.3010 COT </s> -0.3010
-0.3010 COTE </s> -0.3010
-0.3010 COTT </s> -0.3010
-0.3010 COUGH </s> -0.3010
-0.3010 COZ </s> -0.3010
-0.3010 CRACK </s> -0.3010
-0.3010 CSAR </s> -0.3010
-0.3010 CURT </s> -0.3010
-0.3010 CUT </s> -0.3010
-0.3010 CZAR </s> -0.3010
-0.3010 DAB </s> -0.3010
-0.3010 DAC </s> -0.3010
-0.3010 DACK </s> -0.3010
-0.3010 DAD </s> -0.3010
-0.3010 DAG </s> -0.3010
-0.3010 DAGG </s> -0.3010
-0.3010 DAGUE </s> -0.3010
-0.3010 DAHL </s> -0.3010
-0.3010 DAK </s> -0.3010
-0.3010 DAL </s> -0.3010
-0.3010 DAPP </s> -0.3010
-0.3010 DAR </s> -0.3010
-0.3010 DARR </s> -0.3010
-0.3010 DAT </s> -0.3010
-0.3010 DOB </s> -0.3010
-0.3010 DOBB </s> -0.3010
-0.3010 DOC </s> -0.3010
-0.3010 DOCK </s> -0.3010
-0.3010 DODD </s> -0.3010
-0.3010 DOL </s> -0.3010
-0.3010 DOLL </s> -0.3010
-0.3010 DOLLE </s> -0.3010
-0.3010 DOPP </s> -0.3010
-0.3010 DOT </s> -0.3010
-0.3010 DOTT </s> -0.3010
-0.3010 FAC </s> -0.3010
-0.3010 FAHR </s> -0.3010
-0.3010 FAR </s> -0.3010
-0.3010 FARR </s> -0.3010
-0.3010 FAT </s> -0.3010
-0.3010 FLUTE </s> -0.3010
-0.3010 GAAL </s> -0.3010
-0.3010 GAAR </s> -0.3010
-0.3010 GAB </s> -0.3010
-0.3010 GAD </s> -0.3010
-0.3010 GADD </s> -0.3010
-0.3010 GAG </s> -0.3010
-0.3010 GAHR </s> -0.3010
-0.3010 GAL </s> -0.3010
-0.3010 GAP </s> -0.3010
-0.3010 GAPP </s> -0.3010
-0.3010 GAR </s> -0.3010
-0.3010 GARR </s> -0.3010
-0.3010 GAT </s> -0.3010
-0.3010 GATT </s> -0.3010
-0.3010 GNAT </s> -0.3010
-0.3010 GOB </s> -0.3010
-0.3010 GOCKE </s> -0.3010
-0.3010 GOD </s> -0.3010
-0.3010 GOHLKE </s> -0.3010
-0.3010 GOHR </s> -0.3010
-0.3010 GOLL </s> -0.3010
-0.3010 GOLLE </s> -0.3010
-0.3010 GOOD </s> -0.3010
-0.3010 GOT </s> -0.3010
-0.3010 GOTT </s> -0.3010
-0.3010 HAAR </s> -0.3010
-0.3010 HACK </s> -0.3010
-0.3010 HACKE </s> -0.3010
-0.3010 HAQ </s> -0.3010
-0.3010 HAQUE </s> -0.3010
-0.3010 HAT </s> -0.3010
-0.3010 HATT </s> -0.3010
-0.3010 IS A 0.0000
-0.4771 IT </s> -0.3010
-0.7782 IT IS 0.0000
-0.3010 JAC </s> -0.3010
-0.3010 JACK </s> -0.3010
-0.3010 JAGT </s> -0.3010
-0.3010 JAHR </s> -0.3010
-0.3010 JAR </s> -0.3010
-0.3010 KAAS </s> -0.3010
-0.3010 KACH </s> -0.3010
-0.3010 KAHL </s> -0.3010
-0.3010 KAHLE </s> -0.3010
-0.3010 KAHN </s> -0.3010
-0.3010 KAHNG </s> -0.3010
-0.3010 KAHR </s> -0.3010
-0.3010 KAHR'S </s> -0.3010
-0.3010 KAHRE </s> -0.3010
-0.3010 KAHRS </s> -0.3010
-0.3010 KAL </s> -0.3010
-0.3010 KALK </s> -0.3010
-0.3010 KAM </s> -0.3010
-0.3010 KAMM </s> -0.3010
-0.3010 KAN </s> -0.3010
-0.3010 KANDT </s> -0.3010
-0.3010 KANG </s> -0.3010
-0.3010 KANN </s> -0.3010
-0.3010 KANNE </s> -0.3010
-0.3010 KANT </s> -0.3010
-0.3010 KAPP </s> -0.3010
-0.3010 KARCH </s> -0.3010
-0.3010 KARCZ </s> -0.3010
-0.3010 KARG </s> -0.3010
-0.3010 KARL </s> -0.3010
-0.3010 KARN </s> -0.3010
-0.3010 KAROW </s> -0.3010
-0.3010 KARP </s> -0.3010
-0.3010 KARR </s> -0.3010
-0.3010 KARRER </s> -0.3010
-0.3010 KARSH </s> -0.3010
-0.3010 KASCH </s> -0.3010
-0.3010 KASH </s> -0.3010
-0.3010 KASS </s> -0.3010
-0.3010 KAST </s> -0.3010
-0.3010 KAT </s> -0.3010
-0.3010 KATE </s> -0.3010
-0.3010 KATH </s> -0.3010
-0.3010 KATS </s> -0.3010
-0.3010 KATT </s> -0.3010
-0.3010 KATZ </s> -0.3010
-0.3010 KAUK </s> -0.3010
-0.3010 KEAR </s> -0.3010
-0.3010 KECK </s> -0.3010
-0.3010 KEEP TRYING 0.0000
-0.3010 KEHR </s> -0.3010
-0.3010 KEIR </s> -0.3010
-0.3010 KEITT </s> -0.3010
-0.3010 KETT </s> -0.3010
-0.3010 KHAD </s> -0.3010
-0.3010 KHAN </s> -0.3010
-0.3010 KHARG </s> -0.3010
-0.3010 KHAT </s> -0.3010
-0.3010 KICK </s> -0.3010
-0.3010 KIER </s> -0.3010
-0.3010 KIGHT </s> -0.3010
-0.3010 KIR </s> -0.3010
-0.3010 KIRCH </s> -0.3010
-0.3010 KIRK </s> -0.3010
-0.3010 KIRT </s> -0.3010
-0.3010 KIT </s> -0.3010
-0.3010 KITE </s> -0.3010
-0.3010 KITT </s> -0.3010
-0.3010 KLAR </s> -0.3010
-0.3010 KLATT </s> -0.3010
-0.3010 KNACK </s> -0.3010
-0.3010 KOCK </s> -0.3010
-0.3010 KOHN </s> -0.3010
-0.3010 KOHR </s> -0.3010
-0.3010 KOIKE </s> -0.3010
-0.3010 KOK </s> -0.3010
-0.3010 KOKE </s> -0.3010
-0.3010 KOLK </s> -0.3010
-0.3010 KOLL </s> -0.3010
-0.3010 KOLLE </s> -0.3010
-0.3010 KON </s> -0.3010
-0.3010 KOOK </s> -0.3010
-0.3010 KOOR </s> -0.3010
-0.3010 KOPP </s> -0.3010
-0.3010 KOPPE </s> -0.3010
-0.3010 KOS </s> -0.3010
-0.3010 KOSH </s> -0.3010
-0.3010 KOT </s> -0.3010
-0.3010 KOTCH </s> -0.3010
-0.3010 KOTE </s> -0.3010
-0.3010 KOTH </s> -0.3010
-0.3010 KOTT </s> -0.3010
-0.3010 KRACK </s> -0.3010
-0.3010 KRACKE </s> -0.3010
-0.3010 KRAT </s> -0.3010
-0.3010 KRATT </s> -0.3010
-0.3010 KUC </s> -0.3010
-0.3010 KUCK </s> -0.3010
-0.3010 KUECK </s> -0.3010
-0.3010 KUHRT </s> -0.3010
-0.3010 KUK </s> -0.3010
-0.3010 KURK </s> -0.3010
-0.3010 KURT </s> -0.3010
-0.3010 KUT </s> -0.3010
-0.3010 KWAK </s> -0.3010
-0.3010 KYTE </s> -0.3010
-0.3010 LAACK </s> -0.3010
-0.3010 LAAKE </s> -0.3010
-0.3010 LAB </s> -0.3010
-0.3010 LABBE </s> -0.3010
-0.3010 LAC </s> -0.3010
-0.3010 LACK </s> -0.3010
-0.3010 LAD </s> -0.3010
-0.3010 LADD </s> -0.3010
-0.3010 LAG </s> -0.3010
-0.3010 LAGUE </s> -0.3010
-0.3010 LAHR </s> -0.3010
-0.3010 LAK </s> -0.3010
-0.3010 LAP </s> -0.3010
-0.3010 LAPP </s> -0.3010
-0.3010 LAPPE </s> -0.3010
-0.3010 LAR </s> -0.3010
-0.3010 LAT </s> -0.3010
-0.3010 LATKE </s> -0.3010
-0.3010 LOB </s> -0.3010
-0.3010 LOBB </s> -0.3010
-0.3010 LOCH </s> -0.3010
-0.3010 LOCK </s> -0.3010
-0.3010 LOCKE </s> -0.3010
-0.3010 LOK </s> -0.3010
-0.3010 LOP </s> -0.3010
-0.3010 LOPP </s> -0.3010
-0.3010 LOT </s> -0.3010
-0.3010 LOTT </s> -0.3010
-0.3010 LOTTE </s> -0.3010
-0.3010 MAC </s> -0.3010
-0.3010 MACK </s> -0.3010
-0.3010 MACKE </s> -0.3010
-0.3010 MAHER </s> -0.3010
-0.3010 MAHR </s> -0.3010
-0.3010 MAK </s> -0.3010
-0.3010 MAR </s> -0.3010
-0.3010 MARR </s> -0.3010
-0.3010 MAT </s> -0.3010
-0.3010 MATT </s> -0.3010
-0.3010 MATTE </s> -0.3010
-0.3010 MEAGHER </s> -0.3010
-0.3010 NACK </s> -0.3010
-0.3010 NACKE </s> -0.3010
-0.3010 NAT </s> -0.3010
-0.3010 NO </s> -0.3010
-0.3010 NOT RIGHT 0.0000
-0.3010 PAAP </s> -0.3010
-0.3010 PAAPE </s> -0.3010
-0.3010 PAAR </s> -0.3010
-0.3010 PAC </s> -0.3010
-0.3010 PACK </s> -0.3010
-0.3010 PAD </s> -0.3010
-0.3010 PAHL </s> -0.3010
-0.3010 PAK </s> -0.3010
-0.3010 PAL </s> -0.3010
-0.3010 PALL </s> -0.3010
-0.3010 PAP </s> -0.3010
-0.3010 PAPP </s> -0.3010
-0.3010 PAQUE </s> -0.3010
-0.3010 PAR </s> -0.3010
-0.3010 PARR </s> -0.3010
-0.3010 PAT </s> -0.3010
-0.3010 PATT </s> -0.3010
-0.3010 PFARR </s> -0.3010
-0.3010 PHAR </s> -0.3010
-0.3010 PHARR </s> -0.3010
-0.3010 POCH </s> -0.3010
-0.3010 POCK </s> -0.3010
-0.3010 POD </s> -0.3010
-0.3010 POG </s> -0.3010
-0.3010 POP </s> -0.3010
-0.3010 POPP </s> -0.3010
-0.3010 POPPE </s> -0.3010
-0.3010 POT </s> -0.3010
-0.3010 POTT </s> -0.3010
-0.3010 PRATT </s> -0.3010
-0.3010 PRATTE </s> -0.3010
-0.3010 PRETTY GOOD 0.0000
-0.3010 PTAK </s> -0.3010
-0.3010 QOM </s> -0.3010
-0.3010 QUACK </s> -0.3010
-0.3010 QUARRE </s> -0.3010
-0.3010 RAAB </s> -0.3010
-0.3010 RAABE </s> -0.3010
-0.3010 RAAD </s> -0.3010
-0.3010 RAAP </s> -0.3010
-0.3010 RAB </s> -0.3010
-0.3010 RABB </s> -0.3010
-0.3010 RAC </s> -0.3010
-0.3010 RACH </s> -0.3010
-0.3010 RACK </s> -0.3010
-0.3010 RACKED </s> -0.3010
-0.3010 RAD </s> -0.3010
-0.3010 RADDE </s> -0.3010
-0.3010 RAF </s> -0.3010
-0.3010 RAFF </s> -0.3010
-0.3010 RAFT </s> -0.3010
-0.3010 RAG </s> -0.3010
-0.3010 RAGUE </s> -0.3010
-0.3010 RAHM </s> -0.3010
-0.3010 RAHN </s> -0.3010
-0.3010 RAIT </s> -0.3010
-0.3010 RAITT </s> -0.3010
-0.3010 RAK </s> -0.3010
-0.3010 RAM </s> -0.3010
-0.3010 RAMM </s> -0.3010
-0.3010 RAN </s> -0.3010
-0.3010 RANG </s> -0.3010
-0.3010 RANH </s> -0.3010
-0.3010 RANN </s> -0.3010
-0.3010 RANT </s> -0.3010
-0.3010 RAP </s> -0.3010
-0.3010 RAPP </s> -0.3010
-0.3010 RAPPE </s> -0.3010
-0.3010 RAPPED </s> -0.3010
-0.3010 RAPT </s> -0.3010
-0.3010 RAR </s> -0.3010
-0.3010 RAS </s> -0.3010
-0.3010 RASCH </s> -0.3010
-0.3010 RASCHE </s> -0.3010
-0.3010 RASH </s> -0.3010
-0.3010 RAST </s> -0.3010
-0.3010 RAT </s> -0.3010
-0.3010 RATA </s> -0.3010
-0.3010 RATAY </s> -0.3010
-0.3010 RATE </s> -0.3010
-0.3010 RATH </s> -0.3010
-0.3010 RATS </s> -0.3010
-0.3010 RATTE </s> -0.3010
-0.3010 RATTS </s> -0.3010
-0.3010 RATTY </s> -0.3010
-0.3010 RATZ </s> -0.3010
-0.3010 RAZ </s> -0.3010
-0.3010 REIT </s> -0.3010
-0.3010 RET </s> -0.3010
-0.3010 RHETT </s> -0.3010
-0.4771 RIGHT </s> -0.3010
-0.7782 RIGHT AT 0.0000
-0.3010 RITE </s> -0.3010
-0.3010 RITT </s> -0.3010
-0.3010 ROAT </s> -0.3010
-0.3010 ROB </s> -0.3010
-0.3010 ROBB </s> -0.3010
-0.3010 ROBBE </s> -0.3010
-0.3010 ROC </s> -0.3010
-0.3010 ROCH </s> -0.3010
-0.3010 ROCK </s> -0.3010
-0.3010 ROCKE </s> -0.3010
-0.3010 ROCQUE </s> -0.3010
-0.3010 ROD </s> -0.3010
-0.3010 RODD </s> -0.3010
-0.3010 ROG </s> -0.3010
-0.3010 ROGGE </s> -0.3010
-0.3010 ROOT </s> -0.3010
-0.3010 ROPP </s> -0.3010
-0.3010 ROT </s> -0.3010
-0.3010 ROTE </s> -0.3010
-0.3010 ROTT </s> -0.3010
-0.3010 ROUGHT </s> -0.3010
-0.3010 ROUT </s> -0.3010
-0.3010 ROUTE </s> -0.3010
-0.3010 ROUTT </s> -0.3010
-0.3010 RUT </s> -0.3010
-0.3010 RUTT </s> -0.3010
-0.3010 SAAR </s> -0.3010
-0.3010 SAC </s> -0.3010
-0.3010 SACK </s> -0.3010
-0.3010 SAK </s> -0.3010
-0.3010 SAR </s> -0.3010
-0.3010 SAT </s> -0.3010
-0.3010 SCAR </s> -0.3010
-0.3010 SCAT </s> -0.3010
-0.3010 SCHAAR </s> -0.3010
-0.3010 SCHACK </s> -0.3010
-0.3010 SCHADT </s> -0.3010
-0.3010 SCHAR </s> -0.3010
-0.3010 SCHARR </s> -0.3010
-0.3010 SHACK </s> -0.3010
-0.3010 SHAQ </s> -0.3010
-0.3010 SHATT </s> -0.3010
-0.3010 SKAAR </s> -0.3010
-0.3010 STAAR </s> -0.3010
-0.3010 STAC </s> -0.3010
-0.3010 STACK </s> -0.3010
-0.3010 STAR </s> -0.3010
-0.3010 STARR </s> -0.3010
-0.3010 STAT </s> -0.3010
-0.3010 STILL NOT 0.0000
-0.3010 T'ANG </s> -0.3010
-0.3010 TAAFFE </s> -0.3010
-0.3010 TAB </s> -0.3010
-0.3010 TABB </s> -0.3010
-0.3010 TAC </s> -0.3010
-0.3010 TACK </s> -0.3010
-0.3010 TACKE </s> -0.3010
-0.3010 TACKED </s> -0.3010
-0.3010 TACKER </s> -0.3010
-0.3010 TACKS </s> -0.3010
-0.3010 TACKY </s> -0.3010
-0.3010 TACT </s> -0.3010
-0.3010 TAD </s> -0.3010
-0.3010 TADD </s> -0.3010
-0.3010 TAFF </s> -0.3010
-0.3010 TAFFE </s> -0.3010
-0.3010 TAFT </s> -0.3010
-0.3010 TAG </s> -0.3010
-0.3010 TAGG </s> -0.3010
-0.3010 TAGGE </s> -0.3010
-0.3010 TAGUE </s> -0.3010
-0.3010 TAIT </s> -0.3010
-0.3010 TAITE </s> -0.3010
-0.3010 TAITT </s> -0.3010
-0.3010 TAJ </s> -0.3010
-0.3010 TAK </s> -0.3010
-0.3010 TAKE </s> -0.3010
-0.3010 TAKI </s> -0.3010
-0.3010 TAL </s> -0.3010
-0.3010 TALC </s> -0.3010
-0.3010 TALK </s> -0.3010
-0.3010 TAM </s> -0.3010
-0.3010 TAMM </s> -0.3010
-0.3010 TAN </s> -0.3010
-0.3010 TANG </s> -0.3010
-0.3010 TANK </s> -0.3010
-0.3010 TANKE </s> -0.3010
-0.3010 TANN </s> -0.3010
-0.3010 TANT </s> -0.3010
-0.3010 TAP </s> -0.3010
-0.3010 TAPP </s> -0.3010
-0.3010 TAPPE </s> -0.3010
-0.3010 TAPPED </s> -0.3010
-0.3010 TAR </s> -0.3010
-0.3010 TARP </s> -0.3010
-0.3010 TARR </s> -0.3010
-0.3010 TARRED </s> -0.3010
-0.3010 TART </s> -0.3010
-0.3010 TARTE </s> -0.3010
-0.3010 TARTT </s> -0.3010
-0.3010 TASCH </s> -0.3010
-0.3010 TASH </s> -0.3010
-0.3010 TASK </s> -0.3010
-0.3010 TASS </s> -0.3010
-0.3010 TAT </s> -0.3010
-0.3010 TATAR </s> -0.3010
-0.3010 TATE </s> -0.3010
-0.3010 TATSCH </s> -0.3010
-0.3010 TATTER </s> -0.3010
-0.3010 TATTY </s> -0.3010
-0.3010 TAUGHT </s> -0.3010
-0.3010 TAUKE </s> -0.3010
-0.3010 TAUT </s> -0.3010
-0.3010 TAX </s> -0.3010
-0.3010 TEAC </s> -0.3010
-0.3010 TEAK </s> -0.3010
-0.3010 TEAR </s> -0.3010
-0.3010 TEARE </s> -0.3010
-0.3010 TEAT </s> -0.3010
-0.3010 TEC </s> -0.3010
-0.3010 TECH </s> -0.3010
-0.3010 TECK </s> -0.3010
-0.3010 TEER </s> -0.3010
-0.3010 TEET </s> -0.3010
-0.3010 TEICH </s> -0.3010
-0.3010 TEK </s> -0.3010
-0.3010 TET </s> -0.3010
-0.3010 TETE </s> -0.3010
-0.3010 THAR </s> -0.3010
-0.6021 THAT </s> -0.3010
-0.6021 THAT IS 0.0000
-0.9031 THAT'S ALMOST 0.0000
-0.9031 THAT'S IT -0.1249
-0.9031 THAT'S NOT 0.0000
-0.9031 THAT'S PRETTY 0.0000
-0.3010 THOM </s> -0.3010
-0.3010 TIC </s> -0.3010
-0.3010 TICK </s> -0.3010
-0.3010 TIER </s> -0.3010
-0.3010 TIGHT </s> -0.3010
-0.3010 TIKE </s> -0.3010
-0.3010 TKACH </s> -0.3010
-0.3010 TKACZ </s> -0.3010
-0.3010 TOCK </s> -0.3010
-0.3010 TOD </s> -0.3010
-0.3010 TODD </s> -0.3010
-0.3010 TOLLE </s> -0.3010
-0.3010 TOM </s> -0.3010
-0.3010 TONN </s> -0.3010
-0.3010 TOOK </s> -0.3010
-0.3010 TOOKE </s> -0.3010
-0.3010 TOOT </s> -0.3010
-0.3010 TOOTE </s> -0.3010
-0.3010 TOP </s> -0.3010
-0.3010 TOPP </s> -0.3010
-0.3010 TOQUE </s> -0.3010
-0.3010 TOR </s> -0.3010
-0.3010 TORE </s> -0.3010
-0.3010 TORR </s> -0.3010
-0.3010 TORRE </s> -0.3010
-0.3010 TOSH </s> -0.3010
-0.3010 TOT </s> -0.3010
-0.3010 TOTE </s> -0.3010
-0.3010 TOTH </s> -0.3010
-0.3010 TOUR </s> -0.3010
-0.3010 TOUT </s> -0.3010
-0.3010 TRAC </s> -0.3010
-0.3010 TRACK </s> -0.3010
-0.3010 TRAK </s> -0.3010
-0.3010 TRUMPET </s> -0.3010
-0.3010 TRYING </s> -0.3010
-0.3010 TSAR </s> -0.3010
-0.3010 TUCK </s> -0.3010
-0.3010 TUITE </s> -0.3010
-0.3010 TUK </s> -0.3010
-0.3010 TURCK </s> -0.3010
-0.3010 TURE </s> -0.3010
-0.3010 TURK </s> -0.3010
-0.3010 TUT </s> -0.3010
-0.3010 TUTT </s> -0.3010
-0.3010 TYKE </s> -0.3010
-0.3010 TYRE </s> -0.3010
-0.3010 VAT </s> -0.3010
-0.3010 WACK </s> -0.3010
-0.3010 WHACK </s> -0.3010
-0.3010 WRACK </s> -0.3010
-0.3010 WRACKED </s> -0.3010
-0.3010 WRAGG </s> -0.3010
-0.3010 WRAP </s> -0.3010
-0.3010 WRAPPED </s> -0.3010
-0.3010 WRATH </s> -0.3010
-0.3010 WRIGHT </s> -0.3010
-0.3010 WRIT </s> -0.3010
-0.3010 WRITE </s> -0.3010
-0.3010 WROTE </s> -0.3010
-0.3010 WROUGHT </s> -0.3010
-0.3010 YACK </s> -0.3010
-0.3010 YAHR </s> -0.3010
-0.3010 YAK </s> -0.3010
-0.3010 YES </s> -0.3010
-0.3010 ZACH </s> -0.3010
-0.3010 ZACK </s> -0.3010
-0.3010 ZAK </s> -0.3010

\3-grams:
-0.3010 <s> ATTACK </s>
-0.3010 <s> BAAB </s>
-0.3010 <s> BAACK </s>
-0.3010 <s> BAADE </s>
-0.3010 <s> BAAR </s>
-0.3010 <s> BAB </s>
-0.3010 <s> BABB </s>
-0.3010 <s> BACH </s>
-0.3010 <s> BACK </s>
-0.3010 <s> BACKE </s>
-0.3010 <s> BAD </s>
-0.3010 <s> BAG </s>
-0.3010 <s> BAGG </s>
-0.3010 <s> BAGGE </s>
-0.3010 <s> BAHL </s>
-0.3010 <s> BAHR </s>
-0.3010 <s> BAHRE </s>
-0.3010 <s> BAHT </s>
-0.3010 <s> BAK </s>
-0.3010 <s> BAKKE </s>
-0.3010 <s> BAL </s>
-0.3010 <s> BAR </s>
-0.3010 <s> BARR </s>
-0.3010 <s> BAT </s>
-0.3010 <s> BATT </s>
-0.3010 <s> BATTE </s>
-0.3010 <s> BHATT </s>
-0.3010 <s> BOB </s>
-0.3010 <s> BOBB </s>
-0.3010 <s> BOCH </s>
-0.3010 <s> BOCK </s>
-0.3010 <s> BOG </s>
-0.3010 <s> BOHLKE </s>
-0.3010 <s> BOK </s>
-0.3010 <s> BOL </s>
-0.3010 <s> BOLLE </s>
-0.3010 <s> BOP </s>
-0.3010 <s> BOPP </s>
-0.3010 <s> BOTT </s>
-0.3010 <s> BOUGHT </s>
-0.3010 <s> BRAT </s>
-0.3010 <s> BRATT </s>
-0.3010 <s> CAAN </s>
-0.3010 <s> CAB </s>
-0.3010 <s> CAC </s>
-0.3010 <s> CAC'S </s>
-0.3010 <s> CACHE </s>
-0.3010 <s> CAD </s>
-0.3010 <s> CAEN </s>
-0.3010 <s> CAHN </s>
-0.3010 <s> CAIRE </s>
-0.3010 <s> CAKE </s>
-0.3010 <s> CAL </s>
-0.3010 <s> CALF </s>
-0.3010 <s> CALFED </s>
-0.3010 <s> CALK </s>
-0.3010 <s> CALM </s>
-0.3010 <s> CAM </s>
-0.3010 <s> CAMM </s>
-0.3010 <s> CAN </s>
-0.3010 <s> CAN'T </s>
-0.3010 <s> CANN </s>
-0.3010 <s> CANT </s>
-0.3010 <s> CAP </s>
-0.3010 <s> CAPP </s>
-0.3010 <s> CAPPED </s>
-0.3010 <s> CAQ </s>
-0.3010 <s> CAQ'S </s>
-0.3010 <s> CAR </s>
-0.3010 <s> CAR'S </s>
-0.3010 <s> CARD </s>
-0.3010 <s> CARE </s>
-0.3010 <s> CARL </s>
-0.3010 <s> CARLL </s>
-0.3010 <s> CARN </s>
-0.3010 <s> CARNE </s>
-0.3010 <s> CARO </s>
-0.3010 <s> CARP </s>
-0.3010 <s> CARR </s>
-0.3010 <s> CARR'S </s>
-0.3010 <s> CARRA </s>
-0.3010 <s> CARRE </s>
-0.3010 <s> CARRO </s>
-0.3010 <s> CARS </s>
-0.3010 <s> CARS' </s>
-0.3010 <s> CARSE </s>
-0.3010 <s> CART </s>
-0.3010 <s> CARTE </s>
-0.3010 <s> CARVE </s>
-0.3010 <s> CAS </s>
-0.3010 <s> CASH </s>
-0.3010 <s> CASHED </s>
-0.3010 <s> CASK </s>
-0.3010 <s> CASS </s>
-0.3010 <s> CAST </s>
-0.3010 <s> CASTE </s>
-0.3010 <s> CAT </s>
-0.3010 <s> CAT'S </s>
-0.3010 <s> CATCH </s>
-0.3010 <s> CATE </s>
-0.3010 <s> CATOE </s>
-0.3010 <s> CATS </s>
-0.3010 <s> CATT </s>
-0.3010 <s> CATTO </s>
-0.3010 <s> CATTY </s>
-0.3010 <s> CAUGHT </s>
-0.3010 <s> CAUL </s>
-0.3010 <s> CAULK </s>
-0.3010 <s> CAUSE </s>
-0.3010 <s> CHAR </s>
-0.3010 <s> CHAT </s>
-0.3010 <s> CLAAR </s>
-0.3010 <s> CLACK </s>
-0.3010 <s> CLAR </s>
-0.3010 <s> COAR </s>
-0.3010 <s> COAT </s>
-0.3010 <s> COB </s>
-0.3010 <s> COBB </s>
-0.3010 <s> COCK </s>
-0.3010 <s> COCKE </s>
-0.3010 <s> COD </s>
-0.3010 <s> CODD </s>
-0.3010 <s> COEUR </s>
-0.3010 <s> COHR </s>
-0.3010 <s> COIT </s>
-0.3010 <s> COKE </s>
-0.3010 <s> COLL </s>
-0.3010 <s> COM </s>
-0.3010 <s> CON </s>
-0.3010 <s> CONN </s>
-0.3010 <s> CONN. </s>
-0.3010 <s> COOK </s>
-0.3010 <s> COOKE </s>
-0.3010 <s> COOT </s>
-0.3010 <s> COOTE </s>
-0.3010 <s> COP </s>
-0.3010 <s> COPP </s>
-0.3010 <s> COR </s>
-0.3010 <s> CORE </s>
-0.3010 <s> CORPS </s>
-0.3010 <s> CORR </s>
-0.3010 <s> COT </s>
-0.3010 <s> COTE </s>
-0.3010 <s> COTT </s>
-0.3010 <s> COUGH </s>
-0.3010 <s> COZ </s>
-0.3010 <s> CRACK </s>
-0.3010 <s> CSAR </s>
-0.3010 <s> CURT </s>
-0.3010 <s> CUT </s>
-0.3010 <s> CZAR </s>
-0.3010 <s> DAB </s>
-0.3010 <s> DAC </s>
-0.3010 <s> DACK </s>
-0.3010 <s> DAD </s>
-0.3010 <s> DAG </s>
-0.3010 <s> DAGG </s>
-0.3010 <s> DAGUE </s>
-0.3010 <s> DAHL </s>
-0.3010 <s> DAK </s>
-0.3010 <s> DAL </s>
-0.3010 <s> DAPP </s>
-0.3010 <s> DAR </s>
-0.3010 <s> DARR </s>
-0.3010 <s> DAT </s>
-0.3010 <s> DOB </s>
-0.3010 <s> DOBB </s>
-0.3010 <s> DOC </s>
-0.3010 <s> DOCK </s>
-0.3010 <s> DODD </s>
-0.3010 <s> DOL </s>
-0.3010 <s> DOLL </s>
-0.3010 <s> DOLLE </s>
-0.3010 <s> DOPP </s>
-0.3010 <s> DOT </s>
-0.3010 <s> DOTT </s>
-0.3010 <s> FAC </s>
-0.3010 <s> FAHR </s>
-0.3010 <s> FAR </s>
-0.3010 <s> FARR </s>
-0.3010 <s> FAT </s>
-0.3010 <s> GAAL </s>
-0.3010 <s> GAAR </s>
-0.3010 <s> GAB </s>
-0.3010 <s> GAD </s>
-0.3010 <s> GADD </s>
-0.3010 <s> GAG </s>
-0.3010 <s> GAHR </s>
-0.3010 <s> GAL </s>
-0.3010 <s> GAP </s>
-0.3010 <s> GAPP </s>
-0.3010 <s> GAR </s>
-0.3010 <s> GARR </s>
-0.3010 <s> GAT </s>
-0.3010 <s> GATT </s>
-0.3010 <s> GNAT </s>
-0.3010 <s> GOB </s>
-0.3010 <s> GOCKE </s>
-0.3010 <s> GOD </s>
-0.3010 <s> GOHLKE </s>
-0.3010 <s> GOHR </s>
-0.3010 <s> GOLL </s>
-0.3010 <s> GOLLE </s>
-0.3010 <s> GOOD </s>
-0.3010 <s> GOT </s>
-0.3010 <s> GOTT </s>
-0.3010 <s> HAAR </s>
-0.3010 <s> HACK </s>
-0.3010 <s> HACKE </s>
-0.3010 <s> HAQ </s>
-0.3010 <s> HAQUE </s>
-0.3010 <s> HAT </s>
-0.3010 <s> HATT </s>
-0.3010 <s> IT IS
-0.3010 <s> JAC </s>
-0.3010 <s> JACK </s>
-0.3010 <s> JAGT </s>
-0.3010 <s> JAHR </s>
-0.3010 <s> JAR </s>
-0.3010 <s> KAAS </s>
-0.3010 <s> KACH </s>
-0.3010 <s> KAHL </s>
-0.3010 <s> KAHLE </s>
-0.3010 <s> KAHN </s>
-0.3010 <s> KAHNG </s>
-0.3010 <s> KAHR </s>
-0.3010 <s> KAHR'S </s>
-0.3010 <s> KAHRE </s>
-0.3010 <s> KAHRS </s>
-0.3010 <s> KAL </s>
-0.3010 <s> KALK </s>
-0.3010 <s> KAM </s>
-0.3010 <s> KAMM </s>
-0.3010 <s> KAN </s>
-0.3010 <s> KANDT </s>
-0.3010 <s> KANG </s>
-0.3010 <s> KANN </s>
-0.3010 <s> KANNE </s>
-0.3010 <s> KANT </s>
-0.3010 <s> KAPP </s>
-0.3010 <s> KARCH </s>
-0.3010 <s> KARCZ </s>
-0.3010 <s> KARG </s>
-0.3010 <s> KARL </s>
-0.3010 <s> KARN </s>
-0.3010 <s> KAROW </s>
-0.3010 <s> KARP </s>
-0.3010 <s> KARR </s>
-0.3010 <s> KARRER </s>
-0.3010 <s> KARSH </s>
-0.3010 <s> KASCH </s>
-0.3010 <s> KASH </s>
-0.3010 <s> KASS </s>
-0.3010 <s> KAST </s>
-0.3010 <s> KAT </s>
-0.3010 <s> KATE </s>
-0.3010 <s> KATH </s>
-0.3010 <s> KATS </s>
-0.3010 <s> KATT </s>
-0.3010 <s> KATZ </s>
-0.3010 <s> KAUK </s>
-0.3010 <s> KEAR </s>
-0.3010 <s> KECK </s>
-0.3010 <s> KEEP TRYING
-0.3010 <s> KEHR </s>
-0.3010 <s> KEIR </s>
-0.3010 <s> KEITT </s>
-0.3010 <s> KETT </s>
-0.3010 <s> KHAD </s>
-0.3010 <s> KHAN </s>
-0.3010 <s> KHARG </s>
-0.3010 <s> KHAT </s>
-0.3010 <s> KICK </s>
-0.3010 <s> KIER </s>
-0.3010 <s> KIGHT </s>
-0.3010 <s> KIR </s>
-0.3010 <s> KIRCH </s>
-0.3010 <s> KIRK </s>
-0.3010 <s> KIRT </s>
-0.3010 <s> KIT </s>
-0.3010 <s> KITE </s>
-0.3010 <s> KITT </s>
-0.3010 <s> KLAR </s>
-0.3010 <s> KLATT </s>
-0.3010 <s> KNACK </s>
-0.3010 <s> KOCK </s>
-0.3010 <s> KOHN </s>
-0.3010 <s> KOHR </s>
-0.3010 <s> KOIKE </s>
-0.3010 <s> KOK </s>
-0.3010 <s> KOKE </s>
-0.3010 <s> KOLK </s>
-0.3010 <s> KOLL </s>
-0.3010 <s> KOLLE </s>
-0.3010 <s> KON </s>
-0.3010 <s> KOOK </s>
-0.3010 <s> KOOR </s>
-0.3010 <s> KOPP </s>
-0.3010 <s> KOPPE </s>
-0.3010 <s> KOS </s>
-0.3010 <s> KOSH </s>
-0.3010 <s> KOT </s>
-0.3010 <s> KOTCH </s>
-0.3010 <s> KOTE </s>
-0.3010 <s> KOTH </s>
-0.3010 <s> KOTT </s>
-0.3010 <s> KRACK </s>
-0.3010 <s> KRACKE </s>
-0.3010 <s> KRAT </s>
-0.3010 <s> KRATT </s>
-0.3010 <s> KUC </s>
-0.3010 <s> KUCK </s>
-0.3010 <s> KUECK </s>
-0.3010 <s> KUHRT </s>
-0.3010 <s> KUK </s>
-0.3010 <s> KURK </s>
-0.3010 <s> KURT </s>
-0.3010 <s> KUT </s>
-0.3010 <s> KWAK </s>
-0.3010 <s> KYTE </s>
-0.3010 <s> LAACK </s>
-0.3010 <s> LAAKE </s>
-0.3010 <s> LAB </s>
-0.3010 <s> LABBE </s>
-0.3010 <s> LAC </s>
-0.3010 <s> LACK </s>
-0.3010 <s> LAD </s>
-0.3010 <s> LADD </s>
-0.3010 <s> LAG </s>
-0.3010 <s> LAGUE </s>
-0.3010 <s> LAHR </s>
-0.3010 <s> LAK </s>
-0.3010 <s> LAP </s>
-0.3010 <s> LAPP </s>
-0.3010 <s> LAPPE </s>
-0.3010 <s> LAR </s>
-0.3010 <s> LAT </s>
-0.3010 <s> LATKE </s>
-0.3010 <s> LOB </s>
-0.3010 <s> LOBB </s>
-0.3010 <s> LOCH </s>
-0.3010 <s> LOCK </s>
-0.3010 <s> LOCKE </s>
-0.3010 <s> LOK </s>
-0.3010 <s> LOP </s>
-0.3010 <s> LOPP </s>
-0.3010 <s> LOT </s>
-0.3010 <s> LOTT </s>
-0.3010 <s> LOTTE </s>
-0.3010 <s> MAC </s>
-0.3010 <s> MACK </s>
-0.3010 <s> MACKE </s>
-0.3010 <s> MAHER </s>
-0.3010 <s> MAHR </s>
-0.3010 <s> MAK </s>
-0.3010 <s> MAR </s>
-0.3010 <s> MARR </s>
-0.3010 <s> MAT </s>
-0.3010 <s> MATT </s>
-0.3010 <s> MATTE </s>
-0.3010 <s> MEAGHER </s>
-0.3010 <s> NACK </s>
-0.3010 <s> NACKE </s>
-0.3010 <s> NAT </s>
-0.3010 <s> NO </s>
-0.3010 <s> PAAP </s>
-0.3010 <s> PAAPE </s>
-0.3010 <s> PAAR </s>
-0.3010 <s> PAC </s>
-0.3010 <s> PACK </s>
-0.3010 <s> PAD </s>
-0.3010 <s> PAHL </s>
-0.3010 <s> PAK </s>
-0.3010 <s> PAL </s>
-0.3010 <s> PALL </s>
-0.3010 <s> PAP </s>
-0.3010 <s> PAPP </s>
-0.3010 <s> PAQUE </s>
-0.3010 <s> PAR </s>
-0.3010 <s> PARR </s>
-0.3010 <s> PAT </s>
-0.3010 <s> PATT </s>
-0.3010 <s> PFARR </s>
-0.3010 <s> PHAR </s>
-0.3010 <s> PHARR </s>
-0.3010 <s> POCH </s>
-0.3010 <s> POCK </s>
-0.3010 <s> POD </s>
-0.3010 <s> POG </s>
-0.3010 <s> POP </s>
-0.3010 <s> POPP </s>
-0.3010 <s> POPPE </s>
-0.3010 <s> POT </s>
-0.3010 <s> POTT </s>
-0.3010 <s> PRATT </s>
-0.3010 <s> PRATTE </s>
-0.3010 <s> PTAK </s>
-0.3010 <s> QOM </s>
-0.3010 <s> QUACK </s>
-0.3010 <s> QUARRE </s>
-0.3010 <s> RAAB </s>
-0.3010 <s> RAABE </s>
-0.3010 <s> RAAD </s>
-0.3010 <s> RAAP </s>
-0.3010 <s> RAB </s>
-0.3010 <s> RABB </s>
-0.3010 <s> RAC </s>
-0.3010 <s> RACH </s>
-0.3010 <s> RACK </s>
-0.3010 <s> RACKED </s>
-0.3010 <s> RAD </s>
-0.3010 <s> RADDE </s>
-0.3010 <s> RAF </s>
-0.3010 <s> RAFF </s>
-0.3010 <s> RAFT </s>
-0.3010 <s> RAG </s>
-0.3010 <s> RAGUE </s>
-0.3010 <s> RAHM </s>
-0.3010 <s> RAHN </s>
-0.3010 <s> RAIT </s>
-0.3010 <s> RAITT </s>
-0.3010 <s> RAK </s>
-0.3010 <s> RAM </s>
-0.3010 <s> RAMM </s>
-0.3010 <s> RAN </s>
-0.3010 <s> RANG </s>
-0.3010 <s> RANH </s>
-0.3010 <s> RANN </s>
-0.3010 <s> RANT </s>
-0.3010 <s> RAP </s>
-0.3010 <s> RAPP </s>
-0.3010 <s> RAPPE </s>
-0.3010 <s> RAPPED </s>
-0.3010 <s> RAPT </s>
-0.3010 <s> RAR </s>
-0.3010 <s> RAS </s>
-0.3010 <s> RASCH </s>
-0.3010 <s> RASCHE </s>
-0.3010 <s> RASH </s>
-0.3010 <s> RAST </s>
-0.3010 <s> RAT </s>
-0.3010 <s> RATA </s>
-0.3010 <s> RATAY </s>
-0.3010 <s> RATE </s>
-0.3010 <s> RATH </s>
-0.3010 <s> RATS </s>
-0.3010 <s> RATTE </s>
-0.3010 <s> RATTS </s>
-0.3010 <s> RATTY </s>
-0.3010 <s> RATZ </s>
-0.3010 <s> RAZ </s>
-0.3010 <s> REIT </s>
-0.3010 <s> RET </s>
-0.3010 <s> RHETT </s>
-0.3010 <s> RIGHT </s>
-0.3010 <s> RITE </s>
-0.3010 <s> RITT </s>
-0.3010 <s> ROAT </s>
-0.3010 <s> ROB </s>
-0.3010 <s> ROBB </s>
-0.3010 <s> ROBBE </s>
-0.3010 <s> ROC </s>
-0.3010 <s> ROCH </s>
-0.3010 <s> ROCK </s>
-0.3010 <s> ROCKE </s>
-0.3010 <s> ROCQUE </s>
-0.3010 <s> ROD </s>
-0.3010 <s> RODD </s>
-0.3010 <s> ROG </s>
-0.3010 <s> ROGGE </s>
-0.3010 <s> ROOT </s>
-0.3010 <s> ROPP </s>
-0.3010 <s> ROT </s>
-0.3010 <s> ROTE </s>
-0.3010 <s> ROTT </s>
-0.3010 <s> ROUGHT </s>
-0.3010 <s> ROUT </s>
-0.3010 <s> ROUTE </s>
-0.3010 <s> ROUTT </s>
-0.3010 <s> RUT </s>
-0.3010 <s> RUTT </s>
-0.3010 <s> SAAR </s>
-0.3010 <s> SAC </s>
-0.3010 <s> SACK </s>
-0.3010 <s> SAK </s>
-0.3010 <s> SAR </s>
-0.3010 <s> SAT </s>
-0.3010 <s> SCAR </s>
-0.3010 <s> SCAT </s>
-0.3010 <s> SCHAAR </s>
-0.3010 <s> SCHACK </s>
-0.3010 <s> SCHADT </s>
-0.3010 <s> SCHAR </s>
-0.3010 <s> SCHARR </s>
-0.3010 <s> SHACK </s>
-0.3010 <s> SHAQ </s>
-0.3010 <s> SHATT </s>
-0.3010 <s> SKAAR </s>
-0.3010 <s> STAAR </s>
-0.3010 <s> STAC </s>
-0.3010 <s> STACK </s>
-0.3010 <s> STAR </s>
-0.3010 <s> STARR </s>
-0.3010 <s> STAT </s>
-0.3010 <s> STILL NOT
-0.3010 <s> T'ANG </s>
-0.3010 <s> TAAFFE </s>
-0.3010 <s> TAB </s>
-0.3010 <s> TABB </s>
-0.3010 <s> TAC </s>
-0.3010 <s> TACK </s>
-0.3010 <s> TACKE </s>
-0.3010 <s> TACKED </s>
-0.3010 <s> TACKER </s>
-0.3010 <s> TACKS </s>
-0.3010 <s> TACKY </s>
-0.3010 <s> TACT </s>
-0.3010 <s> TAD </s>
-0.3010 <s> TADD </s>
-0.3010 <s> TAFF </s>
-0.3010 <s> TAFFE </s>
-0.3010 <s> TAFT </s>
-0.3010 <s> TAG </s>
-0.3010 <s> TAGG </s>
-0.3010 <s> TAGGE </s>
-0.3010 <s> TAGUE </s>
-0.3010 <s> TAIT </s>
-0.3010 <s> TAITE </s>
-0.3010 <s> TAITT </s>
-0.3010 <s> TAJ </s>
-0.3010 <s> TAK </s>
-0.3010 <s> TAKE </s>
-0.3010 <s> TAKI </s>
-0.3010 <s> TAL </s>
-0.3010 <s> TALC </s>
-0.3010 <s> TALK </s>
-0.3010 <s> TAM </s>
-0.3010 <s> TAMM </s>
-0.3010 <s> TAN </s>
-0.3010 <s> TANG </s>
-0.3010 <s> TANK </s>
-0.3010 <s> TANKE </s>
-0.3010 <s> TANN </s>
-0.3010 <s> TANT </s>
-0.3010 <s> TAP </s>
-0.3010 <s> TAPP </s>
-0.3010 <s> TAPPE </s>
-0.3010 <s> TAPPED </s>
-0.3010 <s> TAR </s>
-0.3010 <s> TARP </s>
-0.3010 <s> TARR </s>
-0.3010 <s> TARRED </s>
-0.3010 <s> TART </s>
-0.3010 <s> TARTE </s>
-0.3010 <s> TARTT </s>
-0.3010 <s> TASCH </s>
-0.3010 <s> TASH </s>
-0.3010 <s> TASK </s>
-0.3010 <s> TASS </s>
-0.3010 <s> TAT </s>
-0.3010 <s> TATAR </s>
-0.3010 <s> TATE </s>
-0.3010 <s> TATSCH </s>
-0.3010 <s> TATTER </s>
-0.3010 <s> TATTY </s>
-0.3010 <s> TAUGHT </s>
-0.3010 <s> TAUKE </s>
-0.3010 <s> TAUT </s>
-0.3010 <s> TAX </s>
-0.3010 <s> TEAC </s>
-0.3010 <s> TEAK </s>
-0.3010 <s> TEAR </s>
-0.3010 <s> TEARE </s>
-0.3010 <s> TEAT </s>
-0.3010 <s> TEC </s>
-0.3010 <s> TECH </s>
-0.3010 <s> TECK </s>
-0.3010 <s> TEER </s>
-0.3010 <s> TEET </s>
-0.3010 <s> TEICH </s>
-0.3010 <s> TEK </s>
-0.3010 <s> TET </s>
-0.3010 <s> TETE </s>
-0.3010 <s> THAR </s>
-0.6021 <s> THAT </s>
-0.6021 <s> THAT IS
-0.9031 <s> THAT'S ALMOST
-0.9031 <s> THAT'S IT
-0.9031 <s> THAT'S NOT
-0.9031 <s> THAT'S PRETTY
-0.3010 <s> THOM </s>
-0.3010 <s> TIC </s>
-0.3010 <s> TICK </s>
-0.3010 <s> TIER </s>
-0.3010 <s> TIGHT </s>
-0.3010 <s> TIKE </s>
-0.3010 <s> TKACH </s>
-0.3010 <s> TKACZ </s>
-0.3010 <s> TOCK </s>
-0.3010 <s> TOD </s>
-0.3010 <s> TODD </s>
-0.3010 <s> TOLLE </s>
-0.3010 <s> TOM </s>
-0.3010 <s> TONN </s>
-0.3010 <s> TOOK </s>
-0.3010 <s> TOOKE </s>
-0.3010 <s> TOOT </s>
-0.3010 <s> TOOTE </s>
-0.3010 <s> TOP </s>
-0.3010 <s> TOPP </s>
-0.3010 <s> TOQUE </s>
-0.3010 <s> TOR </s>
-0.3010 <s> TORE </s>
-0.3010 <s> TORR </s>
-0.3010 <s> TORRE </s>
-0.3010 <s> TOSH </s>
-0.3010 <s> TOT </s>
-0.3010 <s> TOTE </s>
-0.3010 <s> TOTH </s>
-0.3010 <s> TOUR </s>
-0.3010 <s> TOUT </s>
-0.3010 <s> TRAC </s>
-0.3010 <s> TRACK </s>
-0.3010 <s> TRAK </s>
-0.3010 <s> TSAR </s>
-0.3010 <s> TUCK </s>
-0.3010 <s> TUITE </s>
-0.3010 <s> TUK </s>
-0.3010 <s> TURCK </s>
-0.3010 <s> TURE </s>
-0.3010 <s> TURK </s>
-0.3010 <s> TUT </s>
-0.3010 <s> TUTT </s>
-0.3010 <s> TYKE </s>
-0.3010 <s> TYRE </s>
-0.3010 <s> VAT </s>
-0.3010 <s> WACK </s>
-0.3010 <s> WHACK </s>
-0.3010 <s> WRACK </s>
-0.3010 <s> WRACKED </s>
-0.3010 <s> WRAGG </s>
-0.3010 <s> WRAP </s>
-0.3010 <s> WRAPPED </s>
-0.3010 <s> WRATH </s>
-0.3010 <s> WRIGHT </s>
-0.3010 <s> WRIT </s>
-0.3010 <s> WRITE </s>
-0.3010 <s> WROTE </s>
-0.3010 <s> WROUGHT </s>
-0.3010 <s> YACK </s>
-0.3010 <s> YAHR </s>
-0.3010 <s> YAK </s>
-0.3010 <s> YES </s>
-0.3010 <s> ZACH </s>
-0.3010 <s> ZACK </s>
-0.3010 <s> ZAK </s>
-0.3010 A FLUTE </s>
-0.3010 A TRUMPET </s>
-0.3010 ALMOST IT </s>
-0.3010 AT ALL </s>
-0.6021 IS A FLUTE
-0.6021 IS A TRUMPET
-0.3010 IT IS A
-0.3010 KEEP TRYING </s>
-0.6021 NOT RIGHT </s>
-0.6021 NOT RIGHT AT
-0.3010 PRETTY GOOD </s>
-0.3010 RIGHT AT ALL
-0.3010 STILL NOT RIGHT
-0.3010 THAT IS A
-0.3010 THAT'S ALMOST IT
-0.3010 THAT'S IT </s>
-0.3010 THAT'S NOT RIGHT
-0.3010 THAT'S PRETTY GOOD

\end\
